4.276140406727790833e-02
-4.965804144740104675e-02
-6.936850398778915405e-02
6.950833648443222046e-02
-9.479660540819168091e-03
-5.650921538472175598e-02
-4.423424601554870605e-02
1.936293989419937134e-01
-5.211446434259414673e-02
1.655037514865398407e-02
1.060857810080051422e-02
-2.911053784191608429e-02
-2.020611613988876343e-01
1.079826727509498596e-01
-1.613250933587551117e-02
4.235958214849233627e-03
2.597721479833126068e-02
1.175825521349906921e-01
-1.096712723374366760e-01
-4.486617818474769592e-02
1.182490959763526917e-02
1.323084440082311630e-02
-3.550031781196594238e-02
-3.410121053457260132e-02
5.671280249953269958e-02
2.392639406025409698e-02
-6.681664288043975830e-02
1.997908391058444977e-02
4.255473241209983826e-02
2.060561813414096832e-02
4.239188134670257568e-02
8.175253868103027344e-03
-2.821148186922073364e-02
-1.535518933087587357e-02
3.084066510200500488e-02
-6.538628786802291870e-02
1.051044911146163940e-01
-1.656228154897689819e-01
2.388373948633670807e-02
-3.804174065589904785e-02
-4.013223573565483093e-02
1.029886603355407715e-01
-9.914351999759674072e-02
1.469020545482635498e-01
-2.424115687608718872e-02
1.070224866271018982e-02
-1.624623686075210571e-02
-9.850556030869483948e-03
-5.382763966917991638e-02
5.149018950760364532e-03
-1.510323258116841316e-03
5.145544931292533875e-02
-4.888653755187988281e-02
2.330790087580680847e-02
-4.266184195876121521e-02
-3.478445485234260559e-02
-6.477347016334533691e-02
3.059937246143817902e-02
6.878609955310821533e-02
4.742097482085227966e-02
8.480852097272872925e-02
-6.115836650133132935e-02
4.447457566857337952e-02
-1.020720079541206360e-01
4.024826735258102417e-02
-6.786069273948669434e-02
1.457404643297195435e-01
-3.762461245059967041e-02
1.201022043824195862e-02
-4.237477853894233704e-02
-1.502442546188831329e-02
-2.774742618203163147e-02
2.328999340534210205e-02
-4.275578632950782776e-02
2.091902680695056915e-02
-5.370318517088890076e-02
-9.608455933630466461e-03
7.005611062049865723e-02
-5.676249042153358459e-02
4.174847155809402466e-02
-1.594899222254753113e-02
3.344007208943367004e-02
-7.365218549966812134e-02
1.386959552764892578e-01
-1.463590711355209351e-01
2.598071843385696411e-02
-8.857034146785736084e-02
-1.169842332601547241e-01
3.188079968094825745e-02
8.174251019954681396e-02
2.738022990524768829e-02
1.260661035776138306e-01
2.560646831989288330e-02
-2.989699877798557281e-02
-1.084565892815589905e-01
4.661210346966981888e-03
-1.007970198988914490e-01
5.657347664237022400e-02
1.180213037878274918e-02
1.023517996072769165e-01
1.019012555480003357e-01
-3.857898339629173279e-02
-5.007465556263923645e-02
2.197067998349666595e-02
-3.730694949626922607e-02
-4.607100784778594971e-02
-5.722371861338615417e-03
1.532676517963409424e-01
1.554341614246368408e-01
-6.371942814439535141e-03
-2.967526961583644152e-04
3.167871013283729553e-02
-1.494968235492706299e-01
-7.862943410873413086e-02
-7.627382408827543259e-03
-4.334655776619911194e-02
4.444343503564596176e-03
1.379832625389099121e-02
-6.690650433301925659e-02
5.141990259289741516e-02
-6.455053575336933136e-03
6.516556441783905029e-02
-7.415775954723358154e-02
2.279330790042877197e-02
1.688447897322475910e-03
3.998785465955734253e-02
-5.727092176675796509e-02
-4.401281848549842834e-02
5.542891565710306168e-03
-5.328317359089851379e-02
2.306498400866985321e-02
-1.397331012412905693e-03
1.197250559926033020e-02
-3.413568437099456787e-02
2.615142613649368286e-02
-1.288423594087362289e-02
2.292826399207115173e-02
4.899024963378906250e-02
2.381400205194950104e-02
4.516612365841865540e-02
3.699775785207748413e-02
-3.861994296312332153e-02
6.583572924137115479e-02
2.401426061987876892e-02
-1.863114722073078156e-02
1.814622245728969574e-02
2.649454213678836823e-02
-5.091913044452667236e-02
6.699209101498126984e-03
-3.180240094661712646e-02
2.000911161303520203e-03
3.093549050390720367e-02
-2.297191880643367767e-02
9.265054948627948761e-03
-8.082041516900062561e-03
2.592059224843978882e-02
-1.205709576606750488e-02
-8.713954128324985504e-03
-1.209560781717300415e-02
1.577577367424964905e-02
-4.889858886599540710e-03
2.704896265640854836e-03
-5.138690024614334106e-02
4.688499122858047485e-02
9.777326136827468872e-03
5.260951444506645203e-02
3.022462688386440277e-02
-1.266852114349603653e-02
-1.783082261681556702e-02
-3.098217956721782684e-02
-7.813098281621932983e-02
8.977842330932617188e-02
-3.668688237667083740e-02
9.998938068747520447e-03
-2.275384962558746338e-03
1.001005992293357849e-02
-4.011532291769981384e-02
-1.244370080530643463e-02
-5.235919961705803871e-04
9.841618593782186508e-04
2.852977719157934189e-03
-1.809349469840526581e-02
2.767763286828994751e-02
3.189723938703536987e-02
6.695726886391639709e-03
-6.603050511330366135e-03
2.476512081921100616e-02
-7.457460463047027588e-02
-1.745771057903766632e-02
1.144785620272159576e-02
-8.587966114282608032e-02
3.860192745923995972e-02
6.202705204486846924e-03
2.649072743952274323e-02
5.612293723970651627e-03
1.019571051001548767e-01
-1.437049265950918198e-02
1.460629515349864960e-02
-4.773717746138572693e-02
-2.072727307677268982e-02
2.141417190432548523e-02
6.462453305721282959e-02
3.266236931085586548e-02
-2.278816513717174530e-02
-4.871962219476699829e-02
1.124629564583301544e-02
-2.853855676949024200e-02
-7.871461659669876099e-02
-1.931659691035747528e-02
7.085941731929779053e-02
-7.955341786146163940e-02
-9.341586381196975708e-02
4.988382011651992798e-02
1.382609456777572632e-01
-6.277014315128326416e-02
6.969492882490158081e-02
-8.565791882574558258e-03
6.069011986255645752e-02
-6.422650068998336792e-02
-2.120739780366420746e-03
-2.608535252511501312e-02
4.888514801859855652e-02
-6.629202514886856079e-02
5.091006308794021606e-02
1.125430595129728317e-02
3.945116326212882996e-02
-3.237755224108695984e-02
-5.973193794488906860e-03
3.920292481780052185e-02
-7.116820663213729858e-03
1.210904121398925781e-02
2.201420813798904419e-02
-9.111763536930084229e-02
3.876040875911712646e-02
-2.860730886459350586e-02
-7.622919231653213501e-02
1.213849037885665894e-01
-2.351657301187515259e-01
1.689512431621551514e-01
7.982050068676471710e-03
5.732374638319015503e-02
2.488324046134948730e-02
-1.785203069448471069e-02
1.057527493685483932e-02
-2.176463603973388672e-02
5.777568090707063675e-03
-9.582536667585372925e-02
4.708828777074813843e-02
5.893611907958984375e-02
-2.495460025966167450e-02
9.417110122740268707e-03
-1.753003709018230438e-02
2.949309907853603363e-02
-1.214476581662893295e-02
5.016885232180356979e-03
-4.268759489059448242e-02
1.304091066122055054e-01
-2.159417606890201569e-02
1.080706045031547546e-01
1.552352402359247208e-02
7.098270952701568604e-02
-1.041582450270652771e-01
-8.549848943948745728e-02
9.267652779817581177e-02
-8.271360769867897034e-03
-2.978487871587276459e-02
2.842558361589908600e-02
-1.094832792878150940e-01
4.447206482291221619e-02
-1.794506236910820007e-02
2.251326851546764374e-02
-5.798826739192008972e-02
4.145705699920654297e-02
-2.247019903734326363e-03
7.280449569225311279e-02
-1.772733405232429504e-02
-1.744300127029418945e-02
9.705054014921188354e-02
-9.516415745019912720e-02
2.272184565663337708e-02
-4.487503785640001297e-03
3.709151223301887512e-02
-1.118437349796295166e-01
1.151529699563980103e-01
-7.989339530467987061e-03
3.593790158629417419e-02
4.618121683597564697e-02
8.917628228664398193e-02
-7.612083852291107178e-02
-3.066846542060375214e-02
-9.543294459581375122e-02
-1.476216595619916916e-03
-9.438001364469528198e-02
9.881487116217613220e-03
3.920406103134155273e-02
8.732703328132629395e-02
-6.208752468228340149e-02
3.376760706305503845e-02
2.028281055390834808e-02
-4.419236630201339722e-02
9.753179736435413361e-03
7.143426686525344849e-02
-3.058795630931854248e-02
-5.394198745489120483e-02
-6.807606201618909836e-03
1.198286004364490509e-02
-8.713139593601226807e-02
-1.451072841882705688e-01
1.638261377811431885e-01
-4.119023680686950684e-02
7.011434435844421387e-02
4.326895996928215027e-02
5.260447412729263306e-02
2.708612941205501556e-02
1.027307007461786270e-03
-2.200900390744209290e-02
-1.434318423271179199e-01
6.255340576171875000e-02
-2.447803877294063568e-02
6.061298027634620667e-02
-5.163835361599922180e-03
6.570857018232345581e-02
-3.615120891481637955e-03
-7.176190614700317383e-02
-7.982283714227378368e-04
-3.188581019639968872e-02
6.451656669378280640e-02
-4.636327549815177917e-02
-1.901743561029434204e-02
-6.346148438751697540e-03
-1.696771755814552307e-02
1.564770354889333248e-04
6.261294335126876831e-02
-8.191108703613281250e-02
4.865923523902893066e-02
-7.580022793263196945e-03
1.217283075675368309e-03
-8.622688800096511841e-02
1.799576543271541595e-02
1.797009818255901337e-02
1.626880466938018799e-02
9.958186186850070953e-03
1.266916245222091675e-01
7.074037101119756699e-03
-2.979272743687033653e-03
2.658257447183132172e-02
3.016195073723793030e-02
-1.026700958609580994e-01
-1.341005228459835052e-02
-6.899288855493068695e-03
-1.195440720766782761e-02
-2.377359487581998110e-04
5.294501781463623047e-02
-4.113814979791641235e-02
5.192285031080245972e-02
8.254850655794143677e-02
7.524792104959487915e-02
-1.253923773765563965e-01
-2.418604446575045586e-03
-1.678875088691711426e-02
-2.203950285911560059e-02
-8.741136640310287476e-02
9.046974778175354004e-02
-5.126060917973518372e-02
2.559815347194671631e-02
9.682134725153446198e-03
-9.438848495483398438e-02
4.587471857666969299e-02
6.084054708480834961e-02
1.137401070445775986e-02
-7.976837456226348877e-02
1.016700640320777893e-01
-6.427229195833206177e-02
4.434356838464736938e-02
-1.547436043620109558e-02
-2.376668341457843781e-02
5.674695968627929688e-02
-1.699179224669933319e-02
-7.477498799562454224e-02
-5.874833464622497559e-02
5.429520457983016968e-02
3.776186704635620117e-02
4.715794697403907776e-02
-2.175987698137760162e-03
2.674741484224796295e-02
-5.072271823883056641e-02
9.516923688352108002e-03
6.579378247261047363e-02
2.956004580482840538e-03
9.306959062814712524e-02
-1.549041364341974258e-02
3.119108825922012329e-02
1.878983713686466217e-02
-2.835894376039505005e-02
3.505727648735046387e-02
1.899472065269947052e-02
-3.905857726931571960e-02
5.032354965806007385e-02
-1.110520493239164352e-02
3.958544135093688965e-02
-5.543880630284547806e-03
5.032085813581943512e-03
2.441791072487831116e-02
6.880239117890596390e-03
-1.180600654333829880e-02
-7.107744459062814713e-03
4.464707523584365845e-02
-3.315564990043640137e-02
-4.245116189122200012e-02
9.141248650848865509e-03
2.002702094614505768e-02
-5.309628977556712925e-05
-7.250566501170396805e-03
-1.254240721464157104e-01
2.482269518077373505e-02
-1.078905072063207626e-02
4.983134195208549500e-02
-4.096250981092453003e-02
6.178956106305122375e-02
7.213636487722396851e-02
-3.398287296295166016e-02
2.702002227306365967e-02
2.392843179404735565e-02
-1.531098503619432449e-02
-5.043395236134529114e-02
1.434409432113170624e-02
4.498315602540969849e-02
-7.212689612060785294e-03
-1.041075773537158966e-02
-6.326536834239959717e-02
-4.610263183712959290e-02
3.151480108499526978e-02
1.105452654883265495e-03
-9.132142364978790283e-02
6.427004933357238770e-02
6.712773442268371582e-02
1.778253167867660522e-02
1.837150752544403076e-01
-7.688878476619720459e-02
4.588463529944419861e-02
-6.919427961111068726e-02
7.520046830177307129e-02
-1.560298502445220947e-01
6.449950486421585083e-02
-8.293402940034866333e-02
2.674285694956779480e-02
-5.214004963636398315e-02
2.945572696626186371e-02
-2.374104037880897522e-02
4.461280256509780884e-02
-1.985448040068149567e-02
-8.260389789938926697e-03
2.918222174048423767e-02
-1.374896243214607239e-02
2.787040919065475464e-02
-3.809320507571101189e-03
5.886061117053031921e-02
3.577588126063346863e-02
-3.960281610488891602e-03
-7.718763500452041626e-02
2.127144858241081238e-02
5.651628598570823669e-02
6.928668916225433350e-02
6.215552240610122681e-02
3.221018612384796143e-02
-2.090585790574550629e-02
-4.061834514141082764e-02
3.494841605424880981e-02
3.336257115006446838e-02
5.411669984459877014e-02
1.036103232763707638e-03
-1.102688815444707870e-02
2.383136935532093048e-02
1.756044663488864899e-02
-1.041913405060768127e-01
4.029333591461181641e-02
2.038607373833656311e-02
5.013364832848310471e-03
-2.904062625020742416e-03
-6.357120350003242493e-03
-8.799171447753906250e-02
-9.710866212844848633e-02
-5.640912801027297974e-02
-3.312532603740692139e-02
1.815024018287658691e-02
1.281176954507827759e-01
1.512337028980255127e-01
-8.439138531684875488e-02
1.079667657613754272e-01
1.534648705273866653e-03
-1.781710796058177948e-02
1.132964119315147400e-01
-1.402136981487274170e-01
3.835268318653106689e-03
-2.903851680457592010e-02
-5.112512502819299698e-03
-5.622534826397895813e-02
9.128642082214355469e-02
-7.959525287151336670e-02
-2.634041383862495422e-02
-2.964935451745986938e-02
-1.423396356403827667e-02
-1.250938628800213337e-03
3.199002891778945923e-02
-1.569806784391403198e-02
2.278960309922695160e-02
-1.520573943853378296e-01
3.023580312728881836e-01
-1.034718453884124756e-01
1.351976096630096436e-01
-1.469491422176361084e-01
4.000464677810668945e-01
-4.447306394577026367e-01
1.799407005310058594e-01
-1.360393613576889038e-01
7.219496369361877441e-02
-6.825631111860275269e-02
-1.131822764873504639e-01
-7.954169064760208130e-02
1.316135516390204430e-03
2.361848950386047363e-02
7.680705748498439789e-03
-6.386730819940567017e-03
-2.199625596404075623e-03
3.795082867145538330e-02
1.987341325730085373e-03
8.156275004148483276e-02
2.540998719632625580e-02
-5.916684865951538086e-02
-3.279420733451843262e-02
-6.795083731412887573e-02
-9.035515040159225464e-02
6.334660202264785767e-02
2.657031826674938202e-02
4.056073725223541260e-02
7.834378629922866821e-02
1.211771219968795776e-01
-3.390650451183319092e-01
6.489059329032897949e-02
-4.047204926609992981e-02
-3.552131354808807373e-02
-2.130182646214962006e-02
1.980074942111968994e-01
2.642391994595527649e-02
-6.726115196943283081e-02
5.182212218642234802e-02
-5.813801661133766174e-02
-1.279332023113965988e-02
1.180719397962093353e-02
3.851723298430442810e-02
-1.380724366754293442e-02
3.513447940349578857e-02
-3.256547078490257263e-02
1.026819273829460144e-02
2.462159097194671631e-02
-2.115211449563503265e-03
-1.482305489480495453e-02
-1.139558032155036926e-01
3.389656543731689453e-02
-4.864358529448509216e-02
1.899910159409046173e-02
-1.040119910612702370e-03
2.274606078863143921e-01
6.277064979076385498e-02
-3.576909378170967102e-02
6.272751092910766602e-02
-1.352713676169514656e-03
-4.061949253082275391e-02
-1.211328655481338501e-01
-4.264710936695337296e-03
-8.540020324289798737e-03
-5.068016052246093750e-02
-3.369635343551635742e-02
4.596523568034172058e-02
2.729583904147148132e-02
1.542762201279401779e-02
-3.602185472846031189e-02
2.052109315991401672e-02
-2.709053689613938332e-03
4.011515527963638306e-02
6.244830787181854248e-02
-1.135203614830970764e-01
4.263393953442573547e-02
-6.713718175888061523e-02
-1.787686254829168320e-03
8.620825828984379768e-04
-2.629143930971622467e-02
3.113829791545867920e-01
-5.369058996438980103e-02
3.935180138796567917e-03
7.648108061403036118e-03
-9.351487271487712860e-03
-6.205288693308830261e-02
-8.290956914424896240e-02
2.614802680909633636e-03
-5.705256015062332153e-02
-6.031015887856483459e-03
4.018610715866088867e-02
1.665470004081726074e-02
-1.621659845113754272e-02
-1.523679681122303009e-02
7.633730769157409668e-02
-2.436299063265323639e-02
-1.564904674887657166e-02
-2.852513454854488373e-02
3.893647715449333191e-02
-6.470286846160888672e-02
-4.292911663651466370e-02
4.774398356676101685e-02
3.237076103687286377e-02
-3.264055121690034866e-03
9.823342785239219666e-03
-4.623693972826004028e-02
-8.439377881586551666e-03
1.707237958908081055e-02
-3.435808792710304260e-02
1.215713564306497574e-02
-1.622049137949943542e-03
-2.369113825261592865e-02
6.253314204514026642e-03
-2.155238203704357147e-02
-6.961523555219173431e-03
2.840650454163551331e-02
3.370231762528419495e-02
-5.225588008761405945e-02
4.528696835041046143e-02
3.764274716377258301e-02
1.851226668804883957e-03
-2.048771828413009644e-03
-4.937348142266273499e-02
-1.057323738932609558e-01
8.676505833864212036e-02
-2.207614183425903320e-01
4.802208766341209412e-02
2.338335663080215454e-02
-5.113400518894195557e-02
1.711607575416564941e-01
2.123593240976333618e-01
-1.660884469747543335e-01
3.076758794486522675e-02
-2.086839638650417328e-02
-4.316435009241104126e-02
1.732429862022399902e-02
-2.715320326387882233e-02
4.031581804156303406e-02
6.805720180273056030e-02
-7.552923262119293213e-02
5.105787888169288635e-02
-2.752210199832916260e-02
1.850015250965952873e-03
4.831321910023689270e-02
-1.000863034278154373e-02
-1.911453716456890106e-02
-3.041816502809524536e-02
1.025796756148338318e-01
3.032242506742477417e-02
2.830351889133453369e-02
-2.690787427127361298e-02
-9.617173112928867340e-03
-9.118596790358424187e-05
-9.556716307997703552e-03
-2.001447789371013641e-02
-1.798058003187179565e-01
1.041043996810913086e-01
-1.423228532075881958e-02
-1.210290566086769104e-01
3.326898673549294472e-03
9.423142671585083008e-02
5.956443771719932556e-02
-1.271482557058334351e-03
9.106632322072982788e-02
-1.973648183047771454e-02
3.228076174855232239e-02
-4.645669460296630859e-02
-3.645454719662666321e-02
-6.199490278959274292e-02
6.472492963075637817e-02
-5.722361430525779724e-02
3.794314805418252945e-03
-1.723916269838809967e-02
-3.660588338971138000e-02
5.953035131096839905e-02
1.258202642202377319e-02
2.396484091877937317e-02
1.590482704341411591e-02
9.734154492616653442e-02
-1.316729635000228882e-01
1.442303210496902466e-01
-1.754581928253173828e-01
5.715441075153648853e-04
-1.498615834861993790e-02
1.616020686924457550e-02
-1.278191506862640381e-01
1.767293512821197510e-01
-6.170151382684707642e-02
3.965653479099273682e-02
-4.101401194930076599e-02
9.998290240764617920e-02
-1.366275176405906677e-02
-2.130217105150222778e-02
5.318992584943771362e-02
-1.352660506963729858e-01
5.453803762793540955e-02
4.130713641643524170e-03
3.029008954763412476e-02
1.509159617125988007e-02
6.546135991811752319e-02
-1.068792417645454407e-01
-3.572830185294151306e-02
-6.311750411987304688e-02
-3.776532365009188652e-03
1.920775882899761200e-02
-1.057483553886413574e-01
1.954373419284820557e-01
3.538667783141136169e-02
8.052559569478034973e-03
8.240088820457458496e-02
-2.688282169401645660e-02
-9.494253247976303101e-02
-7.727667223662137985e-03
-8.409856259822845459e-02
-4.230261594057083130e-02
1.033176109194755554e-01
3.549238294363021851e-02
-3.313788771629333496e-02
9.492816403508186340e-03
6.154754664748907089e-03
5.144103616476058960e-02
3.990923240780830383e-02
-1.958644762635231018e-02
-2.369523048400878906e-02
6.418981403112411499e-02
-1.111347302794456482e-01
-1.725066080689430237e-02
-8.285530656576156616e-02
-2.585227042436599731e-02
6.541429460048675537e-02
4.367353394627571106e-02
-7.982597500085830688e-02
-5.740471929311752319e-02
4.079338908195495605e-02
1.202316023409366608e-02
1.156099438667297363e-01
-1.164168119430541992e-01
7.589752227067947388e-02
2.568055689334869385e-02
1.103242114186286926e-02
3.198092058300971985e-02
1.967154256999492645e-02
1.774490438401699066e-02
4.232235997915267944e-02
3.108040988445281982e-02
-9.552208334207534790e-02
6.746236700564622879e-03
1.538806781172752380e-02
-2.410615049302577972e-02
-2.878300659358501434e-02
1.281481832265853882e-01
-1.242234278470277786e-02
-1.219849381595849991e-02
1.569057814776897430e-02
1.756562478840351105e-02
-1.548207253217697144e-01
7.406979054212570190e-02
-2.299185469746589661e-02
-2.386166341602802277e-02
-5.055715888738632202e-02
9.698119014501571655e-02
-3.065079636871814728e-02
3.850366175174713135e-02
1.527754869312047958e-02
-1.614246401004493237e-03
-3.035132586956024170e-02
3.446431457996368408e-02
-2.677366696298122406e-02
-7.843301445245742798e-02
7.546205073595046997e-02
2.543220669031143188e-02
-1.063736528158187866e-01
6.882995367050170898e-02
1.391582936048507690e-02
-8.942221850156784058e-02
-1.645532697439193726e-01
8.134149946272373199e-03
1.572168059647083282e-02
-1.927162148058414459e-02
-5.432656779885292053e-02
3.422228395938873291e-01
5.634713172912597656e-02
-7.679284363985061646e-02
6.613158434629440308e-02
-5.489059537649154663e-02
-3.840349614620208740e-02
1.364942081272602081e-02
1.434910297393798828e-02
1.481273327954113483e-03
5.946973338723182678e-02
-3.226760774850845337e-02
-7.665324024856090546e-03
-2.138568460941314697e-02
4.641056433320045471e-02
-4.729587584733963013e-02
3.363081067800521851e-02
-3.484004363417625427e-02
1.329552754759788513e-02
4.664193093776702881e-02
1.347301714122295380e-02
3.891826048493385315e-02
-4.229800775647163391e-02
6.729091703891754150e-02
2.443666011095046997e-02
2.635060995817184448e-02
3.270910978317260742e-01
-3.992168232798576355e-02
-3.170600906014442444e-02
-2.952976385131478310e-03
1.107600238174200058e-02
-3.038665950298309326e-01
-4.862657561898231506e-02
-3.171782568097114563e-02
-5.443128570914268494e-02
2.924444526433944702e-02
6.089107319712638855e-02
3.619246184825897217e-02
7.391980034299194813e-04
6.533609330654144287e-02
-6.061370018869638443e-03
2.404555864632129669e-02
1.850800216197967529e-02
-4.933559149503707886e-02
2.998492866754531860e-02
-5.762855336070060730e-02
-2.257958054542541504e-03
2.034975774586200714e-02
-7.426953874528408051e-03
-7.048367708921432495e-02
-4.118113964796066284e-02
4.125646874308586121e-02
-1.266273409128189087e-01
1.279338449239730835e-01
-3.225077688694000244e-02
1.152074038982391357e-01
-8.241995424032211304e-02
8.921035379171371460e-02
-5.454364418983459473e-02
1.104422099888324738e-02
-4.411222785711288452e-02
7.579277455806732178e-02
6.886374205350875854e-03
-5.542743578553199768e-02
2.660565637052059174e-02
-4.433648660778999329e-02
-4.639626294374465942e-02
2.536499872803688049e-02
4.126789793372154236e-02
7.110170554369688034e-04
-6.364885717630386353e-02
1.292248368263244629e-01
4.307010211050510406e-03
-9.916529059410095215e-03
3.277984261512756348e-02
6.110083311796188354e-02
-2.228426337242126465e-01
5.389836803078651428e-02
8.855843916535377502e-03
-4.902463778853416443e-02
-2.224324271082878113e-02
3.083101660013198853e-02
8.381628990173339844e-02
-9.097129851579666138e-02
6.443366408348083496e-03
3.197811543941497803e-02
-1.053384318947792053e-02
-3.534179925918579102e-02
6.827883422374725342e-02
-7.680036593228578568e-03
-2.326235361397266388e-02
5.269266292452812195e-02
1.581821776926517487e-02
-5.722506344318389893e-02
-1.450011692941188812e-02
1.520437747240066528e-02
-6.071041896939277649e-02
-2.141316793859004974e-02
2.340368740260601044e-02
2.462345175445079803e-02
5.044393707066774368e-03
1.044235229492187500e-01
-1.067682057619094849e-01
-3.910355642437934875e-02
-2.773677557706832886e-02
-3.027703799307346344e-02
5.364150181412696838e-02
4.573317617177963257e-02
3.055868484079837799e-02
-3.127637878060340881e-02
2.558465348556637764e-03
-6.375503144226968288e-04
2.174103073775768280e-02
-2.897175401449203491e-02
1.107952557504177094e-02
-1.842534355819225311e-02
-5.981314182281494141e-02
5.107789859175682068e-02
1.894369348883628845e-02
-1.684023765847086906e-03
-1.586516387760639191e-02
1.519362181425094604e-01
2.129543758928775787e-02
-1.054920479655265808e-01
4.014931619167327881e-02
8.014327287673950195e-02
-3.104231692850589752e-02
-1.499326080083847046e-01
4.575423523783683777e-02
1.015707943588495255e-02
-8.764929324388504028e-02
-5.769610032439231873e-02
7.544141262769699097e-02
9.087307006120681763e-02
-3.181053698062896729e-02
8.081601932644844055e-03
-8.479690179228782654e-03
-2.353869751095771790e-02
-1.317369751632213593e-02
-2.621050924062728882e-03
-1.708218455314636230e-02
-8.445987850427627563e-02
4.260624758899211884e-03
-3.379511088132858276e-02
-1.014326978474855423e-02
-2.057264558970928192e-02
-3.117885813117027283e-02
-1.002213880419731140e-01
-2.412948943674564362e-02
-4.806711524724960327e-02
1.080113425850868225e-01
-6.553302705287933350e-02
2.327643930912017822e-01
4.452566802501678467e-02
1.889342442154884338e-02
-1.054871305823326111e-01
-5.961596593260765076e-02
2.028028480708599091e-02
5.491840420290827751e-04
-1.904398202896118164e-02
1.803616061806678772e-02
-4.853352904319763184e-02
-3.111981786787509918e-02
2.568714879453182220e-02
-1.130064129829406738e-01
-1.775693381205201149e-03
-6.443585734814405441e-03
6.430505961179733276e-02
4.538778215646743774e-02
-8.959287777543067932e-03
1.276109069585800171e-01
-6.212609633803367615e-02
-1.128042340278625488e-01
1.535820309072732925e-02
3.364598378539085388e-02
-1.171908453106880188e-01
7.540537416934967041e-02
7.525718957185745239e-02
-1.818812452256679535e-02
2.764229290187358856e-02
3.340552002191543579e-02
2.650010958313941956e-02
-7.612371444702148438e-02
-6.309248507022857666e-03
1.415914203971624374e-02
-1.522731967270374298e-03
-1.539484690874814987e-02
2.291716262698173523e-02
-2.126836962997913361e-02
5.181957036256790161e-02
-2.495094947516918182e-02
-6.351239234209060669e-02
-1.045869779773056507e-03
2.060341089963912964e-02
-2.582526206970214844e-02
3.590191155672073364e-02
-1.179605722427368164e-02
7.699614018201828003e-02
-4.654983431100845337e-02
-3.784408792853355408e-02
4.163660481572151184e-02
1.373423635959625244e-01
-1.410752627998590469e-02
9.915178641676902771e-03
7.957933843135833740e-02
-9.643309563398361206e-02
-2.278479635715484619e-01
7.630909979343414307e-02
-1.825221814215183258e-02
-2.844455651938915253e-02
1.347381528466939926e-02
1.070471554994583130e-01
-3.017025999724864960e-02
-2.994033508002758026e-02
-2.737389877438545227e-02
-8.968312293291091919e-03
-4.430810362100601196e-02
8.058344572782516479e-02
-2.843086607754230499e-02
1.903185993432998657e-02
-3.723108023405075073e-02
-2.635556459426879883e-01
6.156454980373382568e-02
-4.098385572433471680e-02
4.039143398404121399e-02
-1.046591624617576599e-01
5.452091097831726074e-01
-2.244829386472702026e-01
5.310337990522384644e-02
-3.913041949272155762e-02
6.926871091127395630e-02
-7.508643716573715210e-02
-2.649750374257564545e-02
5.972023680806159973e-02
5.941004565102048218e-05
-1.197824068367481232e-02
1.054649949073791504e-01
-3.882071375846862793e-02
-4.661535844206809998e-02
4.396607982926070690e-04
-2.339332923293113708e-02
-8.458483964204788208e-02
3.268997371196746826e-02
-2.923986408859491348e-03
6.740593165159225464e-02
3.859695047140121460e-02
-1.169895902276039124e-01
8.894757181406021118e-02
-6.126680970191955566e-02
3.074051067233085632e-02
-2.429198659956455231e-02
1.602771133184432983e-01
-3.372400626540184021e-02
1.020930986851453781e-02
-4.835072532296180725e-02
4.940825328230857849e-02
-2.679762803018093109e-02
5.798058584332466125e-02
5.955336242914199829e-02
-1.520850323140621185e-02
-6.031091907061636448e-04
4.022770747542381287e-02
-4.776555113494396210e-03
2.423829399049282074e-02
-2.466718666255474091e-02
-2.678691223263740540e-02
-6.878103315830230713e-02
1.714489012956619263e-01
-5.663334205746650696e-02
2.464631572365760803e-02
4.346907883882522583e-02
1.069658771157264709e-01
-2.063753753900527954e-01
3.428051248192787170e-02
1.300083100795745850e-02
-5.462369322776794434e-02
-5.407369136810302734e-02
1.549173742532730103e-01
-3.129554167389869690e-02
-1.852346397936344147e-02
3.346254304051399231e-02
4.058778285980224609e-02
-1.526969224214553833e-01
7.277819514274597168e-02
1.306267362087965012e-02
-1.568312011659145355e-02
-2.500792406499385834e-02
2.694239467382431030e-02
-8.164484985172748566e-03
-2.559135481715202332e-02
3.595257923007011414e-02
4.362692311406135559e-02
-1.420864928513765335e-02
-1.510377600789070129e-02
3.669583797454833984e-02
-2.502954937517642975e-02
-4.578871652483940125e-02
-1.484451349824666977e-02
1.274957880377769470e-02
6.753003597259521484e-02
3.877574205398559570e-02
-5.384406447410583496e-02
-6.391223985701799393e-03
1.939376443624496460e-02
-1.128207519650459290e-02
1.490699127316474915e-02
-4.234626889228820801e-02
7.728346623480319977e-03
-1.273769233375787735e-02
-2.721506170928478241e-02
-3.832487389445304871e-02
1.119861938059329987e-02
4.569837357848882675e-03
2.269593439996242523e-02
-7.153195142745971680e-02
-7.813567295670509338e-03
4.401725530624389648e-02
-1.587142795324325562e-02
-5.158569663763046265e-02
6.424890458583831787e-02
-3.294481337070465088e-02
1.285165697336196899e-01
7.403462380170822144e-02
-1.505561545491218567e-02
8.137182146310806274e-02
-1.190824136137962341e-01
3.519882634282112122e-02
-1.115241795778274536e-01
-1.126831583678722382e-02
-5.017163604497909546e-02
-3.800056874752044678e-02
1.340873241424560547e-01
-1.199644804000854492e-01
-4.568078741431236267e-02
-4.806359112262725830e-02
2.321301260963082314e-03
6.728921085596084595e-02
-8.027132600545883179e-03
9.765224531292915344e-03
-7.124342955648899078e-03
-2.988516353070735931e-02
3.661637753248214722e-02
-6.449441611766815186e-02
8.139421232044696808e-03
1.923148334026336670e-02
-2.429034747183322906e-02
7.230316102504730225e-02
6.215199455618858337e-02
3.589764982461929321e-02
4.768909886479377747e-02
2.110024541616439819e-01
-1.041737049818038940e-01
-1.829779744148254395e-01
1.372869405895471573e-02
-4.203666746616363525e-02
-1.035726591944694519e-01
-2.970832027494907379e-02
1.242146044969558716e-01
-1.618674956262111664e-02
9.827109985053539276e-03
4.081034660339355469e-02
-3.148749098181724548e-02
8.779501658864319324e-04
-6.184135004878044128e-02
-9.469687938690185547e-03
-7.133374456316232681e-03
8.573780953884124756e-02
3.238974511623382568e-02
-1.715422980487346649e-02
7.850016653537750244e-02
2.314270660281181335e-02
-1.356544196605682373e-01
1.043453291058540344e-01
-2.697639167308807373e-02
-2.499939501285552979e-02
-1.232238486409187317e-02
5.020318627357482910e-01
-1.572655886411666870e-01
3.028918430209159851e-02
-1.912752538919448853e-02
-4.420438781380653381e-02
-1.791870892047882080e-01
-9.955884516239166260e-02
3.145270794630050659e-02
1.861013099551200867e-02
-1.575080677866935730e-02
-8.073056489229202271e-02
2.079754834994673729e-03
1.810436882078647614e-02
-7.545419782400131226e-02
5.386514216661453247e-02
3.412955999374389648e-02
-5.176212638616561890e-02
-2.259714342653751373e-02
-2.076367102563381195e-02
5.522534484043717384e-04
-1.615099310874938965e-01
1.071953475475311279e-01
-2.866620197892189026e-02
9.964589029550552368e-02
-8.706812560558319092e-02
1.791144758462905884e-01
1.214341670274734497e-01
2.859494648873806000e-02
-2.631420642137527466e-02
-4.109714180231094360e-03
-1.661113053560256958e-01
-1.182054635137319565e-03
-1.389949931763112545e-03
3.991355001926422119e-02
-5.447123944759368896e-02
5.790386721491813660e-02
-7.256779074668884277e-02
3.121323883533477783e-02
-1.764587685465812683e-02
3.162089735269546509e-02
3.117034584283828735e-02
1.384762860834598541e-02
-4.240507632493972778e-02
4.210835695266723633e-02
3.815167024731636047e-02
-8.259953558444976807e-02
-7.123505230993032455e-03
-3.980734944343566895e-02
-4.480058792978525162e-03
-5.434907972812652588e-02
-1.072424277663230896e-01
-1.537119969725608826e-02
9.150005877017974854e-03
3.067442215979099274e-02
-2.232528664171695709e-02
-6.729179620742797852e-02
-2.327064611017704010e-02
-6.236531306058168411e-03
-4.902568459510803223e-02
4.934237897396087646e-02
1.466098520904779434e-02
-5.202658101916313171e-02
1.004325374960899353e-01
-5.370021238923072815e-02
2.856781706213951111e-02
8.384725078940391541e-03
-8.321780711412429810e-03
-5.966166406869888306e-02
2.648720145225524902e-02
-3.985630720853805542e-02
4.416169598698616028e-02
-1.238914020359516144e-02
8.008017204701900482e-03
2.921382524073123932e-02
-1.183749362826347351e-01
1.079412102699279785e-01
3.815452381968498230e-02
-3.058721311390399933e-02
-2.678585983812808990e-02
4.032793268561363220e-02
7.533809170126914978e-03
-9.496144950389862061e-02
-1.775039546191692352e-02
-6.490251515060663223e-03
9.738557040691375732e-03
2.061882428824901581e-02
6.245994940400123596e-02
-3.726824885234236717e-03
-2.933844365179538727e-02
-4.415118321776390076e-02
2.598176524043083191e-02
3.381690755486488342e-02
2.378026692895218730e-05
-2.644763886928558350e-02
6.443423032760620117e-02
-9.524367004632949829e-02
4.584710579365491867e-03
-9.532471187412738800e-03
4.221707955002784729e-02
4.473232105374336243e-02
-2.080224603414535522e-01
1.390672773122787476e-01
-2.275997214019298553e-02
-2.316022757440805435e-03
-6.517664529383182526e-03
8.205582387745380402e-03
8.026333898305892944e-02
-4.258612170815467834e-02
-1.422524265944957733e-02
2.982971258461475372e-02
-3.608085587620735168e-02
4.107199236750602722e-02
-3.145013377070426941e-02
1.425966154783964157e-02
-3.371572354808449745e-03
2.974390611052513123e-02
3.008119389414787292e-02
-3.263789787888526917e-02
-1.872919686138629913e-02
2.072192495688796043e-03
-2.124054729938507080e-02
1.856895722448825836e-02
-1.499756821431219578e-03
-1.034661941230297089e-02
2.937890822067856789e-03
1.366028487682342529e-01
8.279255032539367676e-02
-1.756130531430244446e-02
-3.484304249286651611e-02
-1.502109970897436142e-02
1.415324211120605469e-01
2.239020541310310364e-02
2.147147990763187408e-02
8.395760320127010345e-03
-4.055646061897277832e-02
4.717578366398811340e-02
-4.600970074534416199e-02
-2.042852900922298431e-02
6.145719438791275024e-03
4.413490369915962219e-02
-3.038000315427780151e-02
1.309086382389068604e-02
2.221755310893058777e-02
2.064185589551925659e-02
-2.784604392945766449e-02
9.467619471251964569e-03
-1.798398792743682861e-02
-1.430973131209611893e-02
-9.599104523658752441e-03
5.289449170231819153e-02
6.945368647575378418e-02
3.661876544356346130e-02
2.655170485377311707e-02
1.356049627065658569e-02
-1.830865815281867981e-02
7.844585925340652466e-02
5.856537446379661560e-02
-1.259172800928354263e-02
2.942226827144622803e-03
3.358120471239089966e-02
-2.164185047149658203e-02
-1.414740644395351410e-02
-1.334573049098253250e-02
-3.480086103081703186e-02
-3.946353495121002197e-02
3.974071145057678223e-02
-4.897320643067359924e-02
-4.976893961429595947e-02
5.318814422935247421e-03
2.870692126452922821e-02
8.862218260765075684e-02
2.600321359932422638e-02
1.891019754111766815e-02
-2.293109148740768433e-02
3.001978620886802673e-02
9.709949791431427002e-02
1.025027707219123840e-01
-2.274733036756515503e-02
1.854838058352470398e-02
2.447815425693988800e-02
4.167338460683822632e-02
4.344973713159561157e-02
-6.147786602377891541e-02
-2.232846058905124664e-02
-3.618497028946876526e-02
-6.315159052610397339e-02
-4.213502630591392517e-02
-7.735852617770433426e-03
-7.635660469532012939e-02
-3.262934624217450619e-04
2.906022034585475922e-02
3.321973234415054321e-02
8.038811502046883106e-04
1.825717836618423462e-02
6.854552775621414185e-02
-1.049019768834114075e-01
-5.643821880221366882e-02
-2.859674021601676941e-02
-1.434397231787443161e-02
-7.117688655853271484e-02
-2.294739149510860443e-02
-2.607509680092334747e-02
1.023130118846893311e-01
8.872075378894805908e-02
-3.552140668034553528e-02
4.668844491243362427e-02
7.899660617113113403e-02
-4.635360091924667358e-02
-2.729759179055690765e-02
1.061274018138647079e-02
7.736098486930131912e-03
4.311401396989822388e-02
-9.482269524596631527e-04
-3.028996475040912628e-02
2.030595205724239349e-02
2.924183011054992676e-02
-9.452666342258453369e-02
5.158631503582000732e-02
1.093425601720809937e-01
2.452559769153594971e-02
1.731307953596115112e-01
-4.896650090813636780e-02
-7.021299749612808228e-02
1.017981674522161484e-03
-4.565818607807159424e-02
4.267428442835807800e-02
-4.867781698703765869e-02
6.202048435807228088e-02
3.861171752214431763e-02
-1.587278908118605614e-03
-2.319267094135284424e-01
9.116619825363159180e-02
-4.208079725503921509e-02
-8.193407952785491943e-02
9.214626252651214600e-02
1.408791542053222656e-02
1.283484138548374176e-02
-2.438372746109962463e-02
-1.881616003811359406e-02
-2.400957606732845306e-02
4.906081408262252808e-02
-7.964903116226196289e-02
4.057309404015541077e-02
2.919992431998252869e-03
8.694573305547237396e-03
5.896859616041183472e-02
-3.607676178216934204e-02
5.839703232049942017e-02
-3.828703239560127258e-02
2.265373468399047852e-01
-1.095159575343132019e-01
-1.367510855197906494e-01
-8.350743912160396576e-03
-7.764164358377456665e-03
-1.162760406732559204e-01
2.935577183961868286e-02
1.141547486186027527e-01
1.871630774985533208e-05
4.158348590135574341e-02
4.891124740242958069e-02
-2.716085873544216156e-02
-3.816197859123349190e-04
-5.702888220548629761e-02
2.881778171285986900e-03
4.742064047604799271e-03
1.791296526789665222e-03
6.700810790061950684e-02
-5.534407868981361389e-02
7.261729240417480469e-02
-9.787024557590484619e-02
1.223942562937736511e-01
-1.183963865041732788e-01
1.049436535686254501e-02
-4.609874635934829712e-02
3.401171043515205383e-02
-1.724696531891822815e-02
1.226118803024291992e-01
-4.414118081331253052e-02
-1.484122965484857559e-02
5.552859604358673096e-02
-1.326804906129837036e-01
-3.568289801478385925e-02
9.101465344429016113e-02
-6.558341905474662781e-03
-1.641656272113323212e-02
3.374629188328981400e-03
2.668035589158535004e-02
-5.728106014430522919e-03
-4.085834324359893799e-02
2.941402606666088104e-02
-3.255045413970947266e-02
1.893807575106620789e-02
9.407084435224533081e-03
-2.893939614295959473e-02
-5.209796875715255737e-02
-1.452101673930883408e-02
4.087620880454778671e-03
1.756465248763561249e-02
7.935512810945510864e-03
-3.962089493870735168e-02
-4.880905151367187500e-02
1.872521080076694489e-02
-6.997925043106079102e-02
3.998325392603874207e-02
-5.697319284081459045e-02
-1.395254582166671753e-01
-1.182275172322988510e-02
1.002019345760345459e-01
-1.219314755871891975e-03
-2.359454985707998276e-03
4.143542796373367310e-02
1.180688478052616119e-02
-2.995965443551540375e-02
-8.655072189867496490e-03
4.873647913336753845e-02
9.776050224900245667e-03
-6.994137074798345566e-04
1.507195550948381424e-02
-7.927790284156799316e-03
-3.583676740527153015e-02
-2.895959187299013138e-03
2.889328263700008392e-02
-1.158808451145887375e-02
-5.502825137227773666e-03
-1.170947402715682983e-01
1.368612945079803467e-01
7.168892771005630493e-02
-2.667602151632308960e-03
-1.280409563332796097e-02
-1.763509400188922882e-02
1.144827529788017273e-02
-3.697519376873970032e-02
3.662022948265075684e-02
-2.959709241986274719e-02
2.068000659346580505e-02
-1.227120123803615570e-02
1.224358566105365753e-02
-3.807124868035316467e-02
2.951286360621452332e-02
5.379221867769956589e-03
-1.138915028423070908e-02
-3.682232694700360298e-03
2.810855023562908173e-02
5.616685748100280762e-02
-8.587738871574401855e-02
-4.778591170907020569e-02
-2.351911738514900208e-02
1.577690616250038147e-02
-5.375862121582031250e-02
-5.844401195645332336e-02
2.251707464456558228e-01
9.809297323226928711e-02
1.438520383089780807e-02
2.313840016722679138e-02
2.084773778915405273e-02
-1.042116880416870117e-01
-1.942411810159683228e-02
-3.924659639596939087e-02
-4.925368353724479675e-02
7.131568342447280884e-02
-3.647217759862542152e-03
-2.166868746280670166e-02
1.907352358102798462e-02
1.323088724166154861e-02
-1.135409995913505554e-02
-4.048177599906921387e-02
6.326390802860260010e-02
5.488435551524162292e-02
3.132195025682449341e-02
5.269430577754974365e-03
-9.391374886035919189e-03
-1.346362829208374023e-01
-2.120806166203692555e-04
-6.707498431205749512e-02
2.518483400344848633e-01
-1.213320046663284302e-01
4.813161864876747131e-02
-4.819836467504501343e-02
8.912102319300174713e-03
-2.846803143620491028e-02
1.158429905772209167e-01
-6.962023675441741943e-02
-6.091032549738883972e-02
-2.203322015702724457e-02
-4.892131686210632324e-02
2.794272825121879578e-02
-1.599629037082195282e-02
4.867685958743095398e-02
-3.810825571417808533e-02
-3.344755619764328003e-03
4.602623730897903442e-02
-1.690253056585788727e-02
-3.982223197817802429e-02
1.124197710305452347e-02
-4.864893853664398193e-02
8.023016899824142456e-02
4.167084768414497375e-02
4.015369713306427002e-02
-1.017119269818067551e-03
1.050034835934638977e-01
-3.501487523317337036e-02
3.564900020137429237e-03
-3.319052234292030334e-02
-2.385131083428859711e-03
-4.394238069653511047e-02
-4.522554948925971985e-02
1.300102012464776635e-04
2.447777613997459412e-02
-1.525416225194931030e-02
6.878874450922012329e-02
-5.777885392308235168e-02
9.980841539800167084e-03
-3.301672264933586121e-02
-3.884925739839673042e-03
4.998159036040306091e-02
-3.940720856189727783e-02
6.715498119592666626e-02
-3.154059126973152161e-02
4.909457638859748840e-02
-9.779902547597885132e-02
-6.975879520177841187e-02
-6.081152707338333130e-02
2.753810957074165344e-02
-3.992597013711929321e-02
4.681543912738561630e-03
5.698030441999435425e-02
8.343640714883804321e-02
-9.385562688112258911e-02
-5.115951597690582275e-02
1.985481381416320801e-02
6.980133056640625000e-02
5.155044794082641602e-02
-3.754632547497749329e-02
3.897936642169952393e-02
-2.102209068834781647e-02
1.243651844561100006e-02
-5.442681908607482910e-02
4.427466914057731628e-02
5.984180048108100891e-02
1.825400628149509430e-02
-2.855161391198635101e-02
1.770617440342903137e-02
-6.431859917938709259e-03
-5.469698086380958557e-02
-9.701138362288475037e-03
3.540156781673431396e-02
-2.349864691495895386e-02
4.382783081382513046e-03
-7.109937816858291626e-02
1.343756355345249176e-02
-2.052011666819453239e-03
-2.720543649047613144e-03
2.656305208802223206e-03
-7.390261441469192505e-02
7.910733111202716827e-03
-9.605253115296363831e-03
-7.116266340017318726e-02
2.167149819433689117e-02
6.858531385660171509e-02
1.642681192606687546e-03
-2.461773715913295746e-02
-2.058403193950653076e-02
3.676116466522216797e-02
-2.599246799945831299e-02
5.200319457799196243e-03
3.455175086855888367e-03
1.278120651841163635e-02
-5.154637247323989868e-02
-2.579313702881336212e-03
-1.922431588172912598e-02
-7.754012942314147949e-02
9.916479699313640594e-03
1.062601339071989059e-02
2.016039006412029266e-02
1.609198004007339478e-02
1.136479973793029785e-01
2.780570881441235542e-03
2.191933570429682732e-03
-1.271286606788635254e-02
-1.052106544375419617e-01
-5.347606493160128593e-04
1.570502296090126038e-02
3.384611383080482483e-02
1.687100715935230255e-02
-4.531783238053321838e-02
-1.461865613237023354e-03
1.076826080679893494e-01
7.893666625022888184e-03
3.791383653879165649e-02
-8.073952794075012207e-02
-5.177629739046096802e-02
-8.313591033220291138e-02
5.353311542421579361e-03
-2.071001380681991577e-02
-8.335422724485397339e-03
-1.423713564872741699e-02
7.139880955219268799e-02
-3.577474132180213928e-02
-5.876402184367179871e-02
-1.752117532305419445e-03
-1.544559746980667114e-02
9.427960030734539032e-03
-1.303002703934907913e-02
7.993713021278381348e-03
1.742665283381938934e-02
5.983841046690940857e-02
-5.480231344699859619e-02
-2.428382076323032379e-02
-1.352489441633224487e-01
-1.967510953545570374e-02
-1.409460157155990601e-01
4.588988423347473145e-02
-2.804329060018062592e-02
-6.467755883932113647e-02
-1.173052042722702026e-01
1.504916697740554810e-01
-4.429936036467552185e-02
-4.786353185772895813e-02
1.205878257751464844e-01
-4.061154089868068695e-03
6.406754255294799805e-02
-1.462717056274414062e-01
1.096053645014762878e-01
6.690462678670883179e-02
-1.491132676601409912e-01
6.729526817798614502e-02
-3.791261697188019753e-03
2.148068137466907501e-02
-2.281541973352432251e-01
5.307259410619735718e-02
4.501010756939649582e-03
-2.199388295412063599e-02
1.649264805018901825e-02
-2.293334109708666801e-03
9.027543663978576660e-02
-4.663876071572303772e-02
-6.885498762130737305e-02
7.057782262563705444e-02
5.808801949024200439e-02
6.530717015266418457e-02
4.866489022970199585e-02
-6.922011077404022217e-02
1.034738589078187943e-02
2.167969197034835815e-02
-1.568747907876968384e-01
7.640543580055236816e-02
-1.313606947660446167e-01
5.862219631671905518e-02
7.883667945861816406e-02
-9.405376762151718140e-02
8.068692684173583984e-02
-9.620486944913864136e-02
1.121110767126083374e-01
1.854925155639648438e-01
1.463395655155181885e-01
-1.957078650593757629e-02
1.281958073377609253e-03
6.018188968300819397e-02
9.024756960570812225e-03
1.085857301950454712e-02
-5.065269023180007935e-02
1.648356765508651733e-02
6.281583569943904877e-03
-9.007620811462402344e-02
9.321558475494384766e-02
3.602090105414390564e-02
1.032397150993347168e-01
-9.688976407051086426e-02
-1.335957944393157959e-01
-1.093541756272315979e-01
-4.856311157345771790e-02
7.829395122826099396e-03
-9.587801992893218994e-02
1.341468933969736099e-02
-4.994849488139152527e-02
-1.051616817712783813e-01
-8.029344677925109863e-02
7.781792432069778442e-02
1.178744956851005554e-01
1.295720133930444717e-02
-7.239233702421188354e-02
4.259310662746429443e-03
-2.634759619832038879e-02
1.389409601688385010e-01
1.312095224857330322e-01
-2.836962975561618805e-02
3.422112017869949341e-02
4.994964972138404846e-02
1.214377805590629578e-01
-4.470060393214225769e-02
1.609046459197998047e-01
-4.464692249894142151e-02
-1.359896212816238403e-01
-9.838852565735578537e-04
2.385329827666282654e-02
7.700179517269134521e-02
8.294954895973205566e-02
1.201419755816459656e-01
2.151335775852203369e-01
-1.098131239414215088e-01
-4.936235025525093079e-02
-2.112642526626586914e-01
-5.758483707904815674e-02
-1.950904913246631622e-02
-1.156412437558174133e-02
6.504320353269577026e-02
8.317974954843521118e-02
7.879858464002609253e-02
-1.154017150402069092e-01
6.143468245863914490e-02
-1.298981755971908569e-01
1.949824765324592590e-02
3.932907432317733765e-02
5.843130871653556824e-03
1.148956920951604843e-02
-3.950493410229682922e-02
2.163275182247161865e-01
-5.842905864119529724e-02
6.735888123512268066e-02
2.416772581636905670e-02
3.841150179505348206e-02
9.465314447879791260e-02
-5.518566817045211792e-02
-4.597393050789833069e-02
9.171657264232635498e-03
1.387850474566221237e-02
4.525741562247276306e-02
-3.765303269028663635e-02
-6.472787261009216309e-02
-1.039872616529464722e-01
1.898486539721488953e-02
6.142736412584781647e-03
-1.332853287458419800e-01
8.163709938526153564e-02
-2.250827662646770477e-02
5.459273606538772583e-02
8.397438377141952515e-02
-1.151169911026954651e-01
2.565583214163780212e-02
2.217981033027172089e-02
9.512871503829956055e-02
-3.929088264703750610e-02
5.423510074615478516e-02
9.052351862192153931e-02
1.742369611747562885e-03
-4.372721910476684570e-02
-3.195222094655036926e-02
3.073113225400447845e-02
-4.084383696317672729e-02
3.269939683377742767e-03
-1.203600168228149414e-01
-8.554520457983016968e-02
1.459264457225799561e-01
-6.815717369318008423e-02
4.826123639941215515e-02
-2.099085226655006409e-02
-1.051111891865730286e-01
1.166587546467781067e-01
-1.023170351982116699e-01
6.758700311183929443e-02
6.163356080651283264e-02
4.330798611044883728e-02
-4.004303365945816040e-02
7.986576855182647705e-02
3.133927285671234131e-02
1.757413446903228760e-01
1.307096332311630249e-01
6.386272609233856201e-02
-2.746567428112030029e-01
-4.961737990379333496e-02
-5.168824270367622375e-02
-6.237158086150884628e-03
2.795080654323101044e-02
-3.009267896413803101e-02
-6.826903671026229858e-02
-5.876560881733894348e-02
1.423531793989241123e-03
1.307757664471864700e-02
-3.640112280845642090e-02
8.022407442331314087e-02
4.263888299465179443e-02
1.767835617065429688e-01
-4.938300326466560364e-02
-4.295858740806579590e-02
-6.957595795392990112e-02
-1.515671797096729279e-02
1.681167632341384888e-01
-2.516305260360240936e-02
-3.974286466836929321e-02
-4.433554783463478088e-02
1.538374810479581356e-03
5.568686127662658691e-02
-5.563445016741752625e-02
7.946060039103031158e-03
-3.775422275066375732e-02
1.029140874743461609e-01
-3.391275182366371155e-02
3.478951007127761841e-02
-3.593939915299415588e-02
-3.290178626775741577e-02
6.149233877658843994e-02
8.737098425626754761e-03
-4.654393345117568970e-02
-5.719476565718650818e-02
5.900299921631813049e-02
7.801837474107742310e-02
-1.823406070470809937e-01
1.232903525233268738e-01
1.611575484275817871e-01
-4.217265173792839050e-02
-7.712917774915695190e-02
-1.154559031128883362e-01
-8.947174064815044403e-03
-2.057494521141052246e-01
-3.891136124730110168e-02
2.047697314992547035e-03
-2.725611813366413116e-02
4.182523116469383240e-02
-9.991596639156341553e-02
8.645497262477874756e-03
4.202388599514961243e-02
-9.741941839456558228e-02
1.171304136514663696e-01
9.339959174394607544e-02
-1.133366720750927925e-03
7.872873544692993164e-02
1.139535568654537201e-02
1.961860246956348419e-02
3.113303799182176590e-03
9.817993640899658203e-02
-1.778159141540527344e-01
6.657479703426361084e-02
-1.237997487187385559e-01
8.199688047170639038e-02
-1.459814310073852539e-01
1.195977777242660522e-01
6.407403945922851562e-02
1.391619443893432617e-02
-1.524385213851928711e-01
-2.469670772552490234e-02
8.749828487634658813e-02
5.455899238586425781e-02
1.776569038629531860e-01
8.925011754035949707e-02
5.703011155128479004e-02
7.712560147047042847e-02
-1.236484479159116745e-02
3.589327260851860046e-02
-3.871792182326316833e-02
2.333572506904602051e-02
-6.282415986061096191e-02
1.821809709072113037e-01
-1.663181185722351074e-02
4.003788810223340988e-03
-2.411773242056369781e-02
1.614591181278228760e-01
-9.243284165859222412e-02
-1.303848028182983398e-01
1.777666248381137848e-02
-2.998714707791805267e-02
7.168006151914596558e-02
5.247416906058788300e-03
8.099939674139022827e-02
-8.758188784122467041e-02
5.512811616063117981e-02
2.772777900099754333e-02
2.621067501604557037e-02
5.838291719555854797e-02
6.705415248870849609e-02
1.631711050868034363e-02
-3.892317414283752441e-02
9.301877580583095551e-04
-1.667779684066772461e-02
3.748448565602302551e-02
7.454850524663925171e-02
-9.180593304336071014e-03
9.485253691673278809e-02
-4.971019923686981201e-02
-1.039134040474891663e-01
3.705753758549690247e-02
1.765104085206985474e-01
8.023676276206970215e-02
-1.040684506297111511e-01
-7.790635526180267334e-02
1.568924635648727417e-02
-1.247413549572229385e-02
9.201232343912124634e-02
4.411235824227333069e-02
5.592463165521621704e-02
1.737918108701705933e-01
-5.685447528958320618e-02
-1.279162615537643433e-01
9.077565371990203857e-02
-1.628050804138183594e-01
-8.801016956567764282e-02
1.492782533168792725e-01
7.992443442344665527e-02
1.227567493915557861e-01
3.966004401445388794e-02
9.516658633947372437e-02
-1.279121786355972290e-01
2.601672336459159851e-02
-3.785315528512001038e-02
-5.350187886506319046e-03
6.045725569128990173e-02
-1.063955724239349365e-01
-8.429082483053207397e-02
-3.498625010251998901e-02
4.503899440169334412e-02
-3.023499250411987305e-02
9.727118164300918579e-02
1.256218999624252319e-01
-9.692099690437316895e-02
-1.536439359188079834e-02
6.448365747928619385e-02
5.227732472121715546e-03
-9.555675089359283447e-02
-6.015858054161071777e-02
-2.132293209433555603e-02
1.266686171293258667e-01
-8.953367173671722412e-02
-6.458365917205810547e-02
-5.438254401087760925e-02
1.419801115989685059e-01
-3.394585475325584412e-02
-6.661913357675075531e-03
-4.929289966821670532e-02
-1.174342539161443710e-02
-6.428107619285583496e-03
1.670357771217823029e-02
9.588629752397537231e-02
-2.405323460698127747e-02
-5.594618245959281921e-02
-9.611642360687255859e-02
4.139624163508415222e-02
-6.963228434324264526e-02
-1.175724193453788757e-01
-1.143138110637664795e-01
4.965082183480262756e-02
7.638514041900634766e-02
1.387533694505691528e-01
2.099685184657573700e-02
-2.948817610740661621e-02
1.860458254814147949e-01
1.729995757341384888e-01
1.793074980378150940e-02
1.543702781200408936e-01
2.615459822118282318e-02
-3.652926534414291382e-02
-8.438060432672500610e-02
-1.928359270095825195e-01
-1.150589063763618469e-02
-1.073695942759513855e-01
9.637419134378433228e-02
-1.192718371748924255e-01
1.326664350926876068e-03
8.270569890737533569e-02
1.675913296639919281e-02
-8.275254070758819580e-02
4.817002639174461365e-02
-5.914967972785234451e-03
7.074493169784545898e-02
-5.640967190265655518e-02
-7.589919865131378174e-02
-3.094356134533882141e-02
-9.241200238466262817e-02
-1.324826478958129883e-01
1.358116269111633301e-01
8.229441940784454346e-02
-3.339966014027595520e-02
1.326664537191390991e-01
3.370616585016250610e-02
-1.024649143218994141e-01
1.207589805126190186e-01
-1.566761918365955353e-02
3.356712684035301208e-02
5.667037516832351685e-02
9.363629668951034546e-02
1.155866775661706924e-03
5.466639623045921326e-02
-8.140233159065246582e-02
7.619272917509078979e-02
-1.723743826150894165e-01
2.044531106948852539e-01
4.428306221961975098e-02
3.844888135790824890e-02
-1.195627078413963318e-01
6.774550676345825195e-02
-8.097806014120578766e-03
-3.081479342654347420e-03
2.183772064745426178e-02
2.799529135227203369e-01
-2.805394306778907776e-02
1.278752684593200684e-01
-3.439841791987419128e-02
-5.013725906610488892e-02
3.370566293597221375e-02
1.853771694004535675e-02
-7.117089629173278809e-02
1.159947663545608521e-01
-4.866458103060722351e-02
3.228982537984848022e-02
-1.916785240173339844e-01
2.365547232329845428e-02
-1.398329995572566986e-02
-7.026464492082595825e-02
-2.669383585453033447e-02
5.590758845210075378e-02
-2.385249175131320953e-02
-9.438524395227432251e-02
-2.037566155195236206e-01
7.797714322805404663e-02
2.825866080820560455e-02
2.943021431565284729e-02
-6.991588976234197617e-03
2.661255002021789551e-02
-9.795562922954559326e-02
-1.330371648073196411e-01
4.409347847104072571e-02
-1.554973237216472626e-02
-9.340558946132659912e-02
1.363075431436300278e-02
-5.547171831130981445e-02
1.330080032348632812e-01
-8.930616825819015503e-02
1.095921173691749573e-01
-6.982423365116119385e-02
3.881376609206199646e-02
1.700958311557769775e-01
9.123533219099044800e-02
2.477640286087989807e-02
8.037313818931579590e-02
-1.477333009243011475e-01
-1.195390000939369202e-01
3.432201594114303589e-02
-1.276987046003341675e-02
-2.576299011707305908e-02
1.612782180309295654e-01
-1.378645654767751694e-02
2.834335528314113617e-02
-3.167025744915008545e-02
-1.606904668733477592e-03
1.046190485358238220e-01
1.604323089122772217e-02
-1.566104292869567871e-01
6.594227999448776245e-02
-3.837095573544502258e-03
1.273840069770812988e-01
-3.426440758630633354e-03
2.188814729452133179e-01
-3.945830091834068298e-02
-7.620549947023391724e-02
1.559308618307113647e-01
-4.767309501767158508e-02
-4.238058999180793762e-02
1.151844710111618042e-01
1.099645509384572506e-03
3.603946045041084290e-02
5.036768689751625061e-02
7.562682777643203735e-02
4.543216899037361145e-02
1.243694350123405457e-01
8.230114728212356567e-02
-5.040268599987030029e-02
-9.518103301525115967e-02
-5.909168347716331482e-02
-6.951411068439483643e-02
1.148821040987968445e-01
-1.360165514051914215e-02
1.202141419053077698e-01
3.243175894021987915e-02
-6.093376129865646362e-02
8.667228370904922485e-02
-1.346355862915515900e-02
8.367328345775604248e-02
2.557026967406272888e-02
1.581597886979579926e-02
-4.556791111826896667e-02
-1.245141550898551941e-01
-8.282817434519529343e-04
1.537170261144638062e-01
-8.343669027090072632e-02
1.213017255067825317e-01
-5.174640938639640808e-02
-5.511796846985816956e-02
2.771856077015399933e-02
6.238963454961776733e-02
-1.786240339279174805e-01
4.024023935198783875e-02
1.671210825443267822e-01
-9.010906331241130829e-03
5.704069137573242188e-02
-1.080959588289260864e-01
5.510528758168220520e-02
-1.372287422418594360e-01
3.172563761472702026e-02
-1.277100667357444763e-02
-1.247006952762603760e-01
-4.874601215124130249e-02
4.565146565437316895e-02
-2.729768119752407074e-02
9.968433529138565063e-02
1.413287222385406494e-01
-1.001087948679924011e-01
1.068435385823249817e-01
-6.816990673542022705e-02
1.445314884185791016e-01
-5.785682424902915955e-02
-3.774789348244667053e-02
-2.458826079964637756e-02
-1.627854257822036743e-01
-6.878424435853958130e-02
1.152348443865776062e-01
-6.733734160661697388e-02
-9.913783520460128784e-02
-1.727677434682846069e-01
1.760692708194255829e-02
9.703211486339569092e-02
-3.596358001232147217e-02
-1.590443961322307587e-02
9.331133961677551270e-02
2.583165466785430908e-02
-9.136050939559936523e-02
-1.341362446546554565e-01
3.777715191245079041e-02
1.565733999013900757e-01
-4.064343497157096863e-02
1.203147321939468384e-01
4.767305031418800354e-02
6.126921623945236206e-02
6.277775764465332031e-02
-1.183658279478549957e-02
1.053218096494674683e-01
2.048485353589057922e-02
1.162742748856544495e-01
-1.015477105975151062e-01
1.056391447782516479e-01
-7.670246064662933350e-02
1.419030968099832535e-02
2.058498188853263855e-02
1.418664902448654175e-01
-2.332097664475440979e-02
-4.004203714430332184e-03
1.609057746827602386e-02
-1.044715568423271179e-01
4.220246151089668274e-02
-2.124650925397872925e-01
-5.512071028351783752e-02
-8.002310991287231445e-03
5.909158661961555481e-02
5.580766126513481140e-02
-8.960875123739242554e-02
9.198739379644393921e-02
2.398977726697921753e-01
2.473662979900836945e-02
-1.126148998737335205e-01
-7.248196005821228027e-02
-2.302365750074386597e-02
-1.076873987913131714e-01
1.267360299825668335e-01
7.220054417848587036e-02
-9.998673945665359497e-02
5.001136567443609238e-03
7.487444579601287842e-02
-4.231709986925125122e-02
1.096809878945350647e-01
-9.335085004568099976e-02
-9.427470713853836060e-02
-1.325455605983734131e-01
-1.331595610827207565e-02
1.668063807301223278e-03
7.630155980587005615e-02
6.425427645444869995e-02
-5.762108042836189270e-02
-1.215242594480514526e-01
3.475935012102127075e-02
5.533746629953384399e-02
-8.336526155471801758e-02
-2.021913826465606689e-01
-6.690514683723449707e-01
1.598270982503890991e-01
2.068364322185516357e-01
5.226395726203918457e-01
-1.960384547710418701e-01
-1.135775074362754822e-01
-1.845060735940933228e-01
5.508158206939697266e-01
1.491904142312705517e-03
-4.576134029775857925e-03
-1.193342730402946472e-01
-1.694457828998565674e-01
-2.382169710472226143e-03
8.618751168251037598e-02
8.729728311300277710e-02
2.634055614471435547e-01
1.076634153723716736e-01
-1.067405566573143005e-01
-9.106371551752090454e-02
-3.389397263526916504e-01
2.912287972867488861e-02
-1.784360595047473907e-02
-1.557403057813644409e-01
1.915751397609710693e-01
1.062024831771850586e-01
3.692266643047332764e-01
-3.410894870758056641e-01
-4.589395225048065186e-01
-3.449639976024627686e-01
4.972875118255615234e-01
-1.272550970315933228e-02
1.873654872179031372e-01
-3.596778213977813721e-01
9.815521538257598877e-02
-5.917746573686599731e-02
-2.992034656926989555e-03
-5.745593085885047913e-02
4.990698024630546570e-02
1.640623956918716431e-01
2.489332109689712524e-01
-2.990913391113281250e-01
1.544909328222274780e-01
3.095217645168304443e-01
3.698472678661346436e-01
-2.013663947582244873e-01
8.103521168231964111e-02
1.177704706788063049e-01
1.466442495584487915e-01
-1.453555226325988770e-01
1.366955488920211792e-01
-5.549772828817367554e-02
-7.868754863739013672e-02
-8.899197564460337162e-05
-2.715723514556884766e-01
-4.689234122633934021e-02
-3.137954473495483398e-01
3.656153082847595215e-01
9.695997089147567749e-02
-7.264385931193828583e-03
7.991649210453033447e-02
4.738145507872104645e-03
-1.407612264156341553e-01
-1.349365338683128357e-03
-1.310390084981918335e-01
3.693968290463089943e-03
-5.996927618980407715e-02
1.969337463378906250e-02
-1.520388424396514893e-01
-1.099302247166633606e-01
1.547452211380004883e-01
2.296159118413925171e-01
1.136924549937248230e-01
-1.872858963906764984e-02
-1.939136981964111328e-01
1.692423969507217407e-01
6.745512038469314575e-02
1.332031041383743286e-01
6.542188674211502075e-02
-1.544964686036109924e-02
4.091095924377441406e-02
-1.210701912641525269e-01
-3.251480460166931152e-01
-2.170554101467132568e-01
1.727480143308639526e-01
3.503930568695068359e-01
-7.731782644987106323e-02
-9.536583721637725830e-02
-1.144656240940093994e-01
-6.626451388001441956e-03
2.115152627229690552e-01
-7.835106551647186279e-02
-1.674070954322814941e-01
4.749107733368873596e-02
1.535016894340515137e-01
-7.690620422363281250e-02
9.124413877725601196e-02
1.422178745269775391e-01
2.907344698905944824e-01
2.148426920175552368e-01
4.700056016445159912e-01
6.705559790134429932e-02
-2.057133466005325317e-01
-1.900839060544967651e-01
-4.775132611393928528e-02
1.875614076852798462e-01
1.245072782039642334e-01
-6.050472706556320190e-02
-1.755637079477310181e-01
3.549043238162994385e-01
4.096876680850982666e-01
-4.475850611925125122e-02
-2.720477283000946045e-01
-2.768176496028900146e-01
1.868582963943481445e-01
1.508536934852600098e-01
-7.574012130498886108e-02
-1.797154545783996582e-01
-3.945684432983398438e-01
1.862973570823669434e-01
2.094093412160873413e-01
1.014236882328987122e-01
5.052244290709495544e-02
-8.212558180093765259e-02
-1.395420730113983154e-01
5.196387693285942078e-02
-8.060948923230171204e-03
2.984310388565063477e-01
9.321746230125427246e-02
1.720278114080429077e-01
-3.796548545360565186e-01
1.610490083694458008e-01
-1.733941435813903809e-01
-4.193099215626716614e-03
-3.586743175983428955e-01
-8.987729996442794800e-02
-4.270992055535316467e-02
6.347181275486946106e-03
8.595447242259979248e-02
2.280039899051189423e-02
2.126695215702056885e-02
-1.631391420960426331e-02
-1.354344338178634644e-01
4.434528574347496033e-02
-2.307445704936981201e-01
8.436751365661621094e-02
-1.142204776406288147e-01
-4.914164543151855469e-02
-1.050076819956302643e-02
1.252270787954330444e-01
-1.706973649561405182e-02
1.645009815692901611e-01
-1.348299980163574219e-01
3.999403417110443115e-01
2.389971762895584106e-01
-1.957454681396484375e-01
-1.207824274897575378e-01
-2.589161992073059082e-01
4.937526583671569824e-02
2.083902955055236816e-01
1.925798505544662476e-02
7.567822933197021484e-02
1.603122353553771973e-01
1.571059525012969971e-01
4.783757030963897705e-02
-5.442543700337409973e-02
4.067308083176612854e-02
1.132908612489700317e-01
-7.357102632522583008e-02
-9.872673451900482178e-02
-2.446218580007553101e-02
8.195638656616210938e-02
-1.923364214599132538e-02
1.304738223552703857e-02
-7.879968732595443726e-02
-8.296307921409606934e-02
-1.050456464290618896e-01
7.030161470174789429e-02
1.415013819932937622e-01
1.580385714769363403e-01
-5.235166288912296295e-03
-3.401122754439711571e-03
2.367403954267501831e-01
7.003318518400192261e-02
2.572983801364898682e-01
-4.056084752082824707e-01
-9.370105713605880737e-02
2.385917305946350098e-01
5.432959198951721191e-01
-4.519041478633880615e-01
-4.608181416988372803e-01
2.982874214649200439e-01
3.858634829521179199e-01
-4.484460502862930298e-02
-8.173006772994995117e-01
1.252345442771911621e-01
3.645587265491485596e-01
4.111439585685729980e-01
2.837625443935394287e-01
1.302510499954223633e-01
-9.673499502241611481e-03
-8.585363626480102539e-02
-1.480688340961933136e-02
1.307686567306518555e-01
-1.658524274826049805e-01
-3.909702301025390625e-01
-2.432704716920852661e-01
1.843071877956390381e-01
3.521366119384765625e-01
-2.287968434393405914e-02
-1.871167868375778198e-01
-1.114427819848060608e-01
2.654952108860015869e-01
-1.731574088335037231e-01
-4.520456194877624512e-01
-1.720948666334152222e-01
1.226472333073616028e-01
-1.351129263639450073e-02
2.855328023433685303e-01
-1.054676473140716553e-01
1.045137196779251099e-01
-2.337297648191452026e-01
3.689324110746383667e-02
8.253873884677886963e-02
1.082216277718544006e-01
5.044807493686676025e-02
3.676807284355163574e-01
1.334743946790695190e-01
-1.920185685157775879e-01
-2.651267349720001221e-01
1.658711396157741547e-02
-7.546836137771606445e-02
1.160226836800575256e-01
-2.179115712642669678e-01
9.536372870206832886e-02
-1.814376562833786011e-01
2.133750170469284058e-02
-1.774643734097480774e-02
9.042941033840179443e-02
-3.944745063781738281e-01
-2.263551354408264160e-01
2.485094219446182251e-01
1.387994736433029175e-01
-2.107415050268173218e-01
5.531886219978332520e-02
-1.893459111452102661e-01
-8.162914216518402100e-02
-1.278534382581710815e-01
1.490025222301483154e-01
2.585621476173400879e-01
5.256791599094867706e-03
-1.106764823198318481e-01
2.560729086399078369e-01
-1.742100417613983154e-01
-3.747003376483917236e-01
1.014063507318496704e-01
2.089706361293792725e-01
2.866597175598144531e-01
-3.337192237377166748e-01
-2.646613419055938721e-01
-1.412216275930404663e-01
-2.242479175329208374e-01
3.204410895705223083e-02
-1.880885213613510132e-01
-5.574731901288032532e-02
-1.811358518898487091e-02
-6.153852492570877075e-02
-1.220810934901237488e-01
-3.398700058460235596e-02
-4.433814585208892822e-01
-1.818021982908248901e-01
-4.536645710468292236e-01
3.277807235717773438e-01
2.292853742837905884e-01
2.938636541366577148e-01
-4.729343056678771973e-01
-8.211719244718551636e-02
1.040789298713207245e-02
3.991989195346832275e-01
4.140405915677547455e-03
5.364298224449157715e-01
1.639744639396667480e-01
-2.731485366821289062e-01
-3.088431358337402344e-01
4.630805253982543945e-01
-1.576671302318572998e-01
-3.246174752712249756e-01
-3.495862185955047607e-01
5.512614846229553223e-01
4.033598601818084717e-01
-1.154380068182945251e-01
-1.716696619987487793e-01
1.266003493219614029e-02
2.433397620916366577e-01
-1.180054768919944763e-01
-2.888301610946655273e-01
-9.083017706871032715e-02
-4.562328755855560303e-02
1.826551929116249084e-02
-2.746912539005279541e-01
1.863263547420501709e-01
6.821190565824508667e-02
3.285257518291473389e-01
1.637844443321228027e-01
1.053342297673225403e-01
-3.953368365764617920e-01
-2.917831540107727051e-01
-9.062074869871139526e-02
1.796592026948928833e-01
-6.935441493988037109e-02
1.133703738451004028e-01
-2.935230433940887451e-01
6.545630283653736115e-03
1.034455522894859314e-01
4.600591957569122314e-01
-2.590397000312805176e-02
1.291758865118026733e-01
9.545172005891799927e-02
-5.201583728194236755e-02
-2.225647419691085815e-01
2.426146417856216431e-01
3.072265684604644775e-01
-1.289061736315488815e-02
-2.953758239746093750e-01
-1.882972717285156250e-01
-6.439573317766189575e-02
3.524765670299530029e-01
-2.921615913510322571e-02
1.691938936710357666e-01
-2.000630460679531097e-02
-1.047522425651550293e-01
3.508289158344268799e-02
-5.455468595027923584e-02
5.783712491393089294e-02
8.881994336843490601e-02
2.546930909156799316e-01
1.805711835622787476e-01
-9.425420314073562622e-02
9.958890266716480255e-03
-1.432804167270660400e-01
-3.652884960174560547e-01
-2.403583228588104248e-01
1.865868419408798218e-01
-2.102458924055099487e-01
-1.407329887151718140e-01
-2.506370842456817627e-01
1.115643754601478577e-01
3.703553378582000732e-01
-3.174967765808105469e-01
-4.376191794872283936e-01
-9.005544334650039673e-02
2.408269941806793213e-01
5.551887154579162598e-01
-1.620143651962280273e-01
-5.611313879489898682e-02
2.646007016301155090e-02
2.135497033596038818e-01
6.011356785893440247e-02
-1.617041826248168945e-01
-2.422372549772262573e-01
2.866736352443695068e-01
2.881661057472229004e-01
7.294135168194770813e-03
-3.313570916652679443e-01
-2.352884709835052490e-01
2.322800904512405396e-01
8.979678899049758911e-02
-2.456745058298110962e-01
-7.971192598342895508e-01
4.842985421419143677e-02
3.841432929039001465e-01
-2.776892185211181641e-01
-2.956329584121704102e-01
-3.297278285026550293e-01
2.252693623304367065e-01
-1.284784972667694092e-01
-3.797557353973388672e-01
-3.847260177135467529e-01
4.329861104488372803e-01
-5.410388112068176270e-01
1.904624886810779572e-02
-3.828123807907104492e-01
5.955889225006103516e-01
2.245193123817443848e-01
-6.619736552238464355e-02
-5.717812776565551758e-01
1.256437003612518311e-01
-1.188732087612152100e-01
4.468312114477157593e-02
-1.727225929498672485e-01
4.886951670050621033e-02
-8.102078735828399658e-02
-2.187371253967285156e-01
-1.510868780314922333e-02
1.306202262639999390e-01
2.542642056941986084e-01
9.900298714637756348e-02
1.081908680498600006e-02
1.139029394835233688e-02
-6.299734860658645630e-02
-2.293387800455093384e-02
-2.489630281925201416e-01
-5.049080587923526764e-03
2.801448702812194824e-01
4.607484340667724609e-01
-2.242753505706787109e-01
1.974184066057205200e-01
2.526684105396270752e-01
-1.737106442451477051e-01
-3.369785249233245850e-01
-2.192190140485763550e-01
1.396850496530532837e-01
5.585623383522033691e-01
2.246538400650024414e-01
6.534293889999389648e-01
8.079636693000793457e-01
1.481755673885345459e-01
-3.314907848834991455e-01
-2.584391832351684570e-01
2.418574541807174683e-01
-1.802360452711582184e-02
5.327501799911260605e-03
-1.071343943476676941e-01
1.726119816303253174e-01
3.749437332153320312e-01
-2.310296404175460339e-04
-1.407653391361236572e-01
-1.220628842711448669e-01
1.198489442467689514e-01
1.295738108456134796e-02
-7.627543807029724121e-02
-1.823007464408874512e-01
-5.135141313076019287e-02
1.778994873166084290e-02
-9.934338182210922241e-02
1.183083653450012207e-01
-2.855283319950103760e-01
-3.103023767471313477e-02
-1.307715326547622681e-01
5.642833933234214783e-02
-1.109798178076744080e-01
1.218623146414756775e-01
-7.894948124885559082e-02
2.704097330570220947e-02
-8.503388613462448120e-02
-3.103724448010325432e-03
9.402328729629516602e-02
6.461174041032791138e-02
-2.466120272874832153e-01
5.384869873523712158e-02
-4.478344321250915527e-02
-2.545466125011444092e-01
-6.437888741493225098e-02
-3.025918453931808472e-02
9.302826598286628723e-03
-2.890005707740783691e-02
5.650053173303604126e-02
1.539586633443832397e-01
-4.406614974141120911e-02
-4.156137630343437195e-02
1.016870886087417603e-01
1.389597356319427490e-01
-1.521806567907333374e-01
-1.270948648452758789e-01
1.446206718683242798e-01
-6.263266503810882568e-02
-2.191992662847042084e-02
-3.394385054707527161e-02
-4.069398343563079834e-02
1.217433959245681763e-01
-7.333808112889528275e-03
4.192222654819488525e-02
-9.011047333478927612e-02
6.712403148412704468e-02
-1.023787111043930054e-01
-7.731600105762481689e-02
-1.165031082928180695e-02
1.667568534612655640e-01
-1.697252131998538971e-02
7.598648220300674438e-02
8.486494421958923340e-02
1.177325285971164703e-02
2.068790793418884277e-01
-6.052430346608161926e-02
-3.280154615640640259e-02
4.988607764244079590e-02
-2.705455720424652100e-01
-9.573133662343025208e-03
-2.664195001125335693e-01
8.055488765239715576e-02
9.034754708409309387e-03
1.713571995496749878e-01
-5.839201062917709351e-02
3.165083006024360657e-02
-2.200001776218414307e-01
4.781962931156158447e-02
3.407598733901977539e-01
-2.555671334266662598e-01
-6.688910070806741714e-03
8.394859731197357178e-02
2.464381977915763855e-02
-2.186480909585952759e-01
8.080130815505981445e-02
-3.434876725077629089e-02
-4.374359920620918274e-02
5.699688568711280823e-02
2.805742025375366211e-01
3.266309201717376709e-02
-2.763223350048065186e-01
-3.057594895362854004e-01
9.934937208890914917e-02
2.099219858646392822e-01
-1.011722162365913391e-01
3.860267400741577148e-01
-2.013066411018371582e-01
1.775474995374679565e-01
-1.610746830701828003e-01
4.353823065757751465e-01
9.115370362997055054e-02
1.898474432528018951e-02
-3.222585618495941162e-01
-2.757602557539939880e-02
2.699795924127101898e-02
4.304127395153045654e-02
9.936418384313583374e-02
-7.929149270057678223e-02
6.325166672468185425e-02
1.551060006022453308e-02
-2.118376195430755615e-01
1.848254725337028503e-02
2.075778692960739136e-02
2.511162459850311279e-01
1.630774438381195068e-01
8.898809552192687988e-02
-6.620861589908599854e-02
1.238401234149932861e-01
3.326039314270019531e-01
5.647357553243637085e-02
-1.811975091695785522e-01
-7.106796652078628540e-02
2.439971566200256348e-01
2.981005907058715820e-01
-5.036726966500282288e-02
-1.398444324731826782e-01
6.679710000753402710e-02
4.224872887134552002e-01
-1.673685014247894287e-01
-4.413737952709197998e-01
-1.917894929647445679e-01
1.894248276948928833e-01
-1.423335373401641846e-01
5.478850007057189941e-02
-3.130253404378890991e-02
-2.529879510402679443e-01
-1.019340157508850098e-01
-2.568158507347106934e-01
-3.447059392929077148e-01
1.298840939998626709e-01
-5.438126623630523682e-03
2.267783135175704956e-01
3.014858961105346680e-01
-5.899532884359359741e-02
-1.697383373975753784e-01
-2.467229031026363373e-02
1.304460912942886353e-01
2.234708219766616821e-01
1.881362646818161011e-01
7.384856045246124268e-02
-6.083021685481071472e-02
2.519309818744659424e-01
-5.986101925373077393e-03
-1.351241916418075562e-01
-2.785019390285015106e-02
-1.146839093416929245e-02
-1.771358102560043335e-01
-1.932088881731033325e-01
-3.363863378763198853e-02
6.538745015859603882e-02
5.519750341773033142e-02
-2.646996825933456421e-02
7.326938956975936890e-02
4.229494929313659668e-02
-1.678667590022087097e-02
1.009824592620134354e-02
2.973587997257709503e-02
1.107041910290718079e-01
-1.173006147146224976e-01
-7.289879024028778076e-02
4.557044059038162231e-02
1.437600106000900269e-01
2.052554674446582794e-02
-5.781032517552375793e-02
-6.566274166107177734e-02
1.402284298092126846e-02
1.681161858141422272e-02
-4.506560787558555603e-02
8.904014527797698975e-02
-3.882504999637603760e-02
-7.549646496772766113e-02
-1.336449831724166870e-01
8.017833530902862549e-02
-4.232539609074592590e-02
6.440614908933639526e-02
-9.016872942447662354e-02
-2.112410217523574829e-02
7.376696914434432983e-02
-2.231417596340179443e-02
-7.800067216157913208e-02
5.614679306745529175e-02
1.365325599908828735e-01
7.550977636128664017e-03
9.006818756461143494e-03
-1.237245858646929264e-03
-9.523224830627441406e-02
1.409322172403335571e-01
-2.173565514385700226e-02
-1.072391346096992493e-01
1.016465108841657639e-02
-1.611847430467605591e-01
1.072986125946044922e-01
3.484966605901718140e-02
5.730131268501281738e-02
1.272716820240020752e-01
1.259396523237228394e-01
5.572080612182617188e-03
3.551426110789179802e-03
1.085003837943077087e-01
-2.781700168270617723e-04
4.185207944829016924e-04
1.241238862276077271e-01
1.842424869537353516e-01
-7.285470515489578247e-02
1.024314388632774353e-01
3.601353615522384644e-02
9.033812582492828369e-02
-1.309423334896564484e-02
1.831545680761337280e-01
-1.261084713041782379e-02
4.325897619128227234e-02
2.241533016785979271e-03
-1.415050774812698364e-01
1.508246734738349915e-02
-1.065891981124877930e-01
1.321532428264617920e-01
4.187918733805418015e-03
4.003246873617172241e-02
2.104850485920906067e-02
6.175805628299713135e-02
7.321958988904953003e-02
-1.469510886818170547e-02
-1.477202624082565308e-01
6.778400391340255737e-02
-7.089516147971153259e-03
5.331351235508918762e-02
-5.393849313259124756e-02
8.004107326269149780e-02
-1.787426769733428955e-01
2.994073554873466492e-02
-5.840417742729187012e-02
-9.007946588099002838e-03
1.007556095719337463e-01
1.105129122734069824e-01
-2.303614281117916107e-02
3.406510222703218460e-03
1.283363401889801025e-01
4.807387664914131165e-02
1.017828509211540222e-01
1.854893285781145096e-03
2.632598578929901123e-02
-6.681761145591735840e-02
-4.834916442632675171e-02
4.797094035893678665e-03
1.964699476957321167e-01
-7.861483842134475708e-02
-5.958373099565505981e-02
-3.148361667990684509e-02
9.815212339162826538e-02
-1.628322899341583252e-01
1.551480125635862350e-02
1.063929423689842224e-01
-6.783134490251541138e-02
-2.824057824909687042e-02
-5.883775278925895691e-02
-6.812585890293121338e-02
-1.190781146287918091e-01
1.694056540727615356e-01
9.688970446586608887e-02
5.101968720555305481e-02
-1.375047769397497177e-02
7.380056381225585938e-02
-1.039912626147270203e-01
-1.501261591911315918e-01
3.609453141689300537e-02
-4.724171757698059082e-02
6.303934007883071899e-02
2.148211561143398285e-02
-8.816013485193252563e-02
-6.994736939668655396e-02
-5.613930150866508484e-02
4.202244803309440613e-02
8.986207842826843262e-02
7.831192761659622192e-02
1.322415471076965332e-01
-5.693599954247474670e-02
-3.551157191395759583e-02
-1.581691578030586243e-02
9.277654439210891724e-02
1.710622198879718781e-02
-2.256060987710952759e-01
1.625059917569160461e-02
1.863227598369121552e-02
1.620277389883995056e-02
-3.007264994084835052e-02
-6.968361884355545044e-02
2.628780156373977661e-02
1.275234669446945190e-01
2.034270949661731720e-02
2.098508179187774658e-02
1.308337748050689697e-01
1.465111970901489258e-02
7.177719473838806152e-02
1.059906408190727234e-01
4.534193128347396851e-02
3.249918296933174133e-02
6.928466260433197021e-02
-1.172761693596839905e-01
-3.338693827390670776e-02
1.655720546841621399e-02
2.420378848910331726e-03
-5.844064056873321533e-02
-8.484425954520702362e-03
8.284664712846279144e-03
5.029746890068054199e-02
-7.317251712083816528e-02
2.536818198859691620e-02
1.014126390218734741e-01
-5.478053539991378784e-02
2.451609969139099121e-01
-1.777368336915969849e-01
1.310367435216903687e-01
3.505589812994003296e-02
-3.911960124969482422e-02
-5.224986001849174500e-02
3.007029369473457336e-02
4.955720156431198120e-02
1.793490052223205566e-01
-6.994069367647171021e-02
-1.738056987524032593e-01
-6.187996640801429749e-02
5.313091725111007690e-02
1.493742316961288452e-02
7.909700274467468262e-03
-4.040205851197242737e-02
9.871036559343338013e-02
-5.121768265962600708e-02
1.932262480258941650e-01
4.639746993780136108e-02
-6.957681477069854736e-02
-2.509721368551254272e-02
3.983018174767494202e-02
6.928790360689163208e-02
-3.509414941072463989e-02
-9.813037514686584473e-02
1.749431490898132324e-01
1.754421927034854889e-02
-1.063505932688713074e-01
-4.135907441377639771e-02
-1.981638818979263306e-01
-5.049458239227533340e-03
-1.435020752251148224e-02
-2.310783602297306061e-02
2.061729431152343750e-01
4.901234433054924011e-02
9.719015657901763916e-02
1.702136099338531494e-01
3.941785544157028198e-02
-1.513587124645709991e-02
4.374087974429130554e-02
-5.214210599660873413e-02
3.284649550914764404e-02
1.264262758195400238e-02
4.178795963525772095e-02
-4.270474612712860107e-02
1.143442466855049133e-01
1.022718921303749084e-01
4.406572133302688599e-02
8.572822064161300659e-02
-9.508180618286132812e-02
5.665340647101402283e-02
5.119056627154350281e-02
-3.265936672687530518e-02
-1.167282462120056152e-01
5.456625949591398239e-03
-1.722223125398159027e-02
-9.327244013547897339e-02
2.257140539586544037e-02
1.023288592696189880e-01
-5.370539426803588867e-02
-5.459080450236797333e-03
4.267798736691474915e-03
2.189535461366176605e-02
1.538429409265518188e-02
-1.183025538921356201e-01
-6.843689829111099243e-02
-1.064306199550628662e-01
-3.695788234472274780e-02
-1.162977740168571472e-01
7.541441917419433594e-02
-1.628319174051284790e-02
-3.823295002803206444e-03
9.890618175268173218e-02
-1.525931507349014282e-01
-1.291446685791015625e-01
3.908710554242134094e-02
-4.245899990200996399e-02
-1.727315932512283325e-01
-1.157750934362411499e-01
-6.553939543664455414e-03
1.542620062828063965e-01
-7.259362190961837769e-02
4.771688580513000488e-02
2.219727262854576111e-02
-1.361525356769561768e-01
4.612703807651996613e-03
-1.385662406682968140e-01
-2.654791995882987976e-02
1.134324073791503906e-01
-8.514275401830673218e-02
-4.777487367391586304e-02
3.378181532025337219e-02
-3.717876225709915161e-02
1.413005590438842773e-01
1.927323639392852783e-02
-3.948640078306198120e-02
6.472392380237579346e-02
4.911970719695091248e-02
-9.529199451208114624e-03
-6.875051558017730713e-02
-2.350510843098163605e-02
7.315128110349178314e-03
4.423659667372703552e-02
1.060156747698783875e-01
-3.523774072527885437e-02
-1.491894572973251343e-01
-4.867869988083839417e-02
-2.608930878341197968e-02
-2.518357522785663605e-02
-2.384249866008758545e-01
8.034390956163406372e-02
9.742815792560577393e-02
-4.628924280405044556e-02
-1.660484820604324341e-01
-6.293937563896179199e-02
-7.768225669860839844e-02
-3.375767543911933899e-02
-1.102035939693450928e-01
1.284181922674179077e-01
-1.005364730954170227e-01
-1.499135233461856842e-02
-6.604123115539550781e-02
1.055950820446014404e-01
7.321253884583711624e-03
-7.880749553442001343e-02
9.070885926485061646e-02
9.446012973785400391e-02
-2.430855110287666321e-02
1.281453967094421387e-01
-1.005701720714569092e-01
-1.106100976467132568e-01
1.878495886921882629e-02
3.509256243705749512e-02
-4.835831746459007263e-02
-4.313807561993598938e-02
-1.496756728738546371e-02
-1.033765822649002075e-01
1.065058186650276184e-01
2.937299199402332306e-02
-3.331080079078674316e-02
3.335423767566680908e-02
8.881602436304092407e-02
1.849116943776607513e-02
-7.891408354043960571e-02
1.110352501273155212e-01
-1.070873066782951355e-01
-8.606306463479995728e-02
3.272140771150588989e-02
-5.020654574036598206e-02
8.226951211690902710e-02
8.466929430142045021e-04
-4.493957757949829102e-02
3.032230027019977570e-02
-4.033523425459861755e-02
-4.665786400437355042e-02
1.509310910478234291e-03
1.453583594411611557e-02
-1.371960937976837158e-01
5.700983107089996338e-02
2.107828669250011444e-02
-7.441412657499313354e-02
-1.687713712453842163e-02
6.816889345645904541e-02
7.147199660539627075e-02
4.776903893798589706e-03
5.197773501276969910e-02
-6.383057683706283569e-02
-1.278187632560729980e-01
-5.497099459171295166e-02
8.056302368640899658e-02
-1.115020811557769775e-01
-9.354241192340850830e-02
-1.149736940860748291e-01
1.873867399990558624e-02
5.399453639984130859e-02
7.210130244493484497e-02
-4.993685707449913025e-02
5.707790330052375793e-02
1.288917474448680878e-02
-8.316901512444019318e-03
3.521097078919410706e-02
1.975843608379364014e-01
9.692887961864471436e-02
-1.480446197092533112e-02
5.574287846684455872e-02
1.692688837647438049e-02
-1.130273565649986267e-02
-7.802297174930572510e-02
2.765721827745437622e-02
-7.483359426259994507e-02
7.890639454126358032e-02
4.483018815517425537e-02
2.472622320055961609e-02
-5.966012552380561829e-02
-1.079690828919410706e-02
-9.867725521326065063e-02
-3.219846263527870178e-02
1.732291877269744873e-01
2.198203653097152710e-02
1.006988901644945145e-02
2.400445938110351562e-01
-2.395485043525695801e-01
-1.599678844213485718e-01
1.000153049826622009e-01
-5.910557135939598083e-02
-2.340456843376159668e-01
8.896096795797348022e-02
-1.497046928852796555e-02
-2.260979451239109039e-02
-2.114842981100082397e-01
-5.348877981305122375e-02
-7.018159329891204834e-02
7.458684034645557404e-03
5.783780664205551147e-02
-2.928575314581394196e-02
-5.935606360435485840e-02
1.270367503166198730e-01
-1.084287837147712708e-01
9.445617906749248505e-03
4.450882226228713989e-02
4.284584149718284607e-02
5.005305167287588120e-03
-4.948999360203742981e-02
-6.498694885522127151e-03
2.667063102126121521e-02
-6.342359632253646851e-02
1.418259888887405396e-01
-5.347187072038650513e-02
2.318709157407283783e-02
8.744855970144271851e-02
-5.032836273312568665e-02
-2.382228523492813110e-02
-1.883901469409465790e-02
-1.865719556808471680e-01
-8.658060431480407715e-02
2.605344913899898529e-02
5.862420424818992615e-02
-4.634169861674308777e-02
3.402986750006675720e-02
-1.149005815386772156e-01
-4.553398583084344864e-03
-3.592279180884361267e-02
6.412644684314727783e-02
-1.178219169378280640e-01
-2.863387390971183777e-02
-7.247498258948326111e-03
3.206278011202812195e-02
-6.048996746540069580e-02
-1.083068782463669777e-03
-4.046363011002540588e-02
1.390431374311447144e-01
3.386334702372550964e-02
-7.311628758907318115e-02
4.538664594292640686e-02
-3.861430659890174866e-02
-1.264207959175109863e-01
1.126276403665542603e-01
2.359547279775142670e-02
-4.316057637333869934e-02
-6.463933736085891724e-02
-4.047358036041259766e-02
-1.685192435979843140e-02
-3.630562871694564819e-02
2.029569149017333984e-01
-9.818700700998306274e-02
1.722899638116359711e-02
-3.483564779162406921e-02
8.215403556823730469e-02
-3.968762606382369995e-02
5.202990770339965820e-02
-5.409692600369453430e-02
-1.230375394225120544e-01
5.652714893221855164e-02
-6.579963117837905884e-02
1.459221094846725464e-01
9.636183828115463257e-02
6.321258842945098877e-02
1.002191230654716492e-01
1.583585441112518311e-01
-5.941352248191833496e-02
1.650650054216384888e-01
1.301947832107543945e-01
-8.419619500637054443e-02
-8.840200304985046387e-02
3.319356590509414673e-02
2.166926413774490356e-01
-1.185912266373634338e-01
-1.982219517230987549e-02
-7.721496513113379478e-05
-8.682028949260711670e-02
-1.111180172301828861e-03
1.131707131862640381e-01
-5.395372211933135986e-02
-7.994705438613891602e-02
1.174429506063461304e-01
-1.907012984156608582e-02
3.741516917943954468e-02
-7.992590777575969696e-03
-1.994343996047973633e-01
9.776789695024490356e-02
-2.749975770711898804e-03
8.644523471593856812e-02
5.156517028808593750e-02
-2.197062596678733826e-02
8.557844161987304688e-02
-9.442168287932872772e-03
4.242303967475891113e-02
3.079758584499359131e-02
7.609562575817108154e-02
-2.138735912740230560e-02
-1.372564136981964111e-01
5.290880426764488220e-02
4.060821607708930969e-02
-1.864986680448055267e-02
-2.308645658195018768e-02
4.634950682520866394e-02
-9.213300049304962158e-02
-1.196790337562561035e-01
4.411996901035308838e-02
-1.506790965795516968e-01
1.308172345161437988e-01
6.496435403823852539e-02
6.549583375453948975e-02
-5.375830456614494324e-02
-5.651102401316165924e-03
-7.454968988895416260e-02
-1.179627180099487305e-01
-4.649767186492681503e-03
-1.241400986909866333e-01
-1.494563668966293335e-01
9.874428808689117432e-02
-6.149248033761978149e-02
1.479849070310592651e-01
-1.862746290862560272e-02
4.871262237429618835e-02
-4.866576567292213440e-02
5.884348601102828979e-02
-7.529453933238983154e-02
5.697010830044746399e-02
1.636739671230316162e-01
-7.974743843078613281e-02
-1.494462043046951294e-01
-1.242782101035118103e-01
1.324354019016027451e-02
-1.349833421409130096e-02
-7.081666588783264160e-02
1.676544696092605591e-01
-3.354034200310707092e-02
1.074725203216075897e-02
5.745445191860198975e-02
-1.543830614537000656e-02
7.129469513893127441e-02
7.561514619737863541e-03
-1.829001158475875854e-01
9.731271862983703613e-02
5.176998302340507507e-02
-1.352113038301467896e-01
5.195102468132972717e-02
-8.567827753722667694e-03
-2.717433869838714600e-02
-1.118469834327697754e-01
2.674070745706558228e-02
8.453306742012500763e-03
5.612418428063392639e-02
3.585582599043846130e-02
6.255589425563812256e-02
-7.003550231456756592e-02
1.066396012902259827e-01
1.531412452459335327e-01
1.390407383441925049e-01
-2.302410453557968140e-02
4.948075860738754272e-02
9.471912868320941925e-03
6.134158372879028320e-02
4.264934733510017395e-02
1.542242020368576050e-01
5.808603018522262573e-02
-4.335948452353477478e-02
1.118503361940383911e-01
6.237576901912689209e-02
1.896787285804748535e-01
-1.080129593610763550e-01
1.239788718521595001e-02
1.182107701897621155e-01
3.899148851633071899e-02
4.941010475158691406e-02
-8.576960116624832153e-02
6.163122504949569702e-02
9.963599964976310730e-03
-1.215514987707138062e-01
2.202940406277775764e-03
-3.408509120345115662e-02
-1.404476612806320190e-01
-2.198480442166328430e-02
6.430117040872573853e-02
1.283254623413085938e-01
3.887429460883140564e-02
2.489572018384933472e-02
1.744738407433032990e-02
-7.084118574857711792e-02
2.010630071163177490e-02
-6.531466543674468994e-02
5.230234470218420029e-03
-8.004193753004074097e-02
-2.156653068959712982e-02
-2.573871985077857971e-02
-1.293935924768447876e-01
4.140187427401542664e-02
-4.923578351736068726e-02
-1.510987132787704468e-01
1.110348403453826904e-01
2.101727724075317383e-01
4.378232359886169434e-02
-1.737036854028701782e-01
2.599129080772399902e-01
-1.260507255792617798e-01
-1.600116491317749023e-01
-8.673596382141113281e-02
2.071416750550270081e-02
8.331931382417678833e-02
-1.330498903989791870e-01
1.777758747339248657e-01
-3.413735330104827881e-01
1.387304514646530151e-01
4.175018891692161560e-02
-3.151569282636046410e-03
2.610953757539391518e-03
2.736570872366428375e-02
-7.741499692201614380e-02
-1.388450860977172852e-01
-1.750241070985794067e-01
1.494585424661636353e-01
5.635955184698104858e-02
-8.777196705341339111e-02
9.554144926369190216e-03
2.333294153213500977e-01
-8.410239219665527344e-02
8.710776269435882568e-02
6.081901863217353821e-02
3.089988604187965393e-02
5.067363753914833069e-02
-1.033629775047302246e-01
-1.148029491305351257e-01
-9.223530441522598267e-02
-6.129935500212013721e-04
-3.765450045466423035e-02
-1.192256957292556763e-01
-1.401303857564926147e-01
-1.335375905036926270e-01
-9.643752127885818481e-02
5.779517069458961487e-02
-1.076041385531425476e-01
-5.819122865796089172e-02
-9.707502275705337524e-02
2.764010243117809296e-02
-1.046952009201049805e-01
6.687666475772857666e-02
3.774102032184600830e-02
-6.483987718820571899e-02
9.270062297582626343e-02
1.431750804185867310e-01
-1.844152808189392090e-02
-2.041679434478282928e-02
-1.943992376327514648e-01
-6.904069334268569946e-03
-5.730384588241577148e-02
1.016176417469978333e-01
2.391452640295028687e-01
3.469620272517204285e-02
-1.081144958734512329e-01
1.101684495806694031e-01
1.158554106950759888e-01
-5.931652337312698364e-02
4.197627678513526917e-02
-1.279559079557657242e-02
-1.864892244338989258e-01
5.881622433662414551e-02
-1.409852355718612671e-01
5.086698010563850403e-02
2.653313428163528442e-02
-2.902350388467311859e-02
6.090026348829269409e-02
-5.899227410554885864e-02
-6.753995269536972046e-02
5.348457023501396179e-02
-1.441956609487533569e-01
-6.062600761651992798e-03
-4.166338592767715454e-02
7.759932428598403931e-02
-3.871900215744972229e-02
-9.820421040058135986e-02
3.723454847931861877e-02
3.650960326194763184e-02
-6.372130662202835083e-02
1.440408732742071152e-02
3.166865184903144836e-02
1.448946744203567505e-01
3.302192687988281250e-02
-1.102404668927192688e-01
-1.674151718616485596e-01
-4.743394255638122559e-02
-3.661401197314262390e-02
6.909263134002685547e-02
1.179278548806905746e-02
8.782786130905151367e-02
5.262171849608421326e-02
-5.530948936939239502e-02
-3.744690865278244019e-02
-1.116910055279731750e-01
3.225474059581756592e-02
-7.528024911880493164e-02
-3.211745992302894592e-02
1.317181717604398727e-02
3.382826596498489380e-02
-2.460355870425701141e-02
1.853790134191513062e-01
1.493443995714187622e-01
-5.430039018392562866e-02
-4.038429260253906250e-02
-4.604869708418846130e-02
-2.254465408623218536e-02
3.627127408981323242e-02
-1.781955659389495850e-01
4.094363376498222351e-02
1.968848146498203278e-02
3.905175253748893738e-02
-5.432826001197099686e-03
1.503306906670331955e-02
-5.831963941454887390e-02
3.500133380293846130e-02
-9.177277237176895142e-02
-3.472156822681427002e-02
1.680892109870910645e-01
6.025830656290054321e-02
3.329576179385185242e-02
6.078709661960601807e-02
-1.288449624553322792e-03
3.186496719717979431e-02
-9.006479382514953613e-02
4.045272618532180786e-02
3.484540060162544250e-02
-1.348061412572860718e-01
5.778684094548225403e-02
-1.075988039374351501e-01
3.095519170165061951e-02
1.341823786497116089e-01
5.926337465643882751e-02
-1.408865004777908325e-01
8.540365844964981079e-02
2.934328839182853699e-02
-7.605855166912078857e-02
-9.218400716781616211e-02
-2.433658204972743988e-02
-1.279163658618927002e-01
4.219546914100646973e-03
-9.495276957750320435e-03
9.480935521423816681e-03
-4.928252100944519043e-02
-5.233144015073776245e-02
5.846245959401130676e-02
1.270568668842315674e-01
-1.662507466971874237e-02
-6.629312783479690552e-02
-2.796861231327056885e-01
2.535969391465187073e-02
-5.147447064518928528e-02
3.481723368167877197e-02
-3.206942230463027954e-02
-6.684322655200958252e-02
1.218868326395750046e-02
9.443697333335876465e-02
-4.872495681047439575e-02
6.375208497047424316e-02
-8.832468092441558838e-02
1.961319744586944580e-01
3.245757147669792175e-02
2.485228329896926880e-02
-1.238325536251068115e-01
-1.234878692775964737e-02
1.644796808250248432e-03
-1.831461489200592041e-02
5.387567728757858276e-02
1.100532244890928268e-02
3.542356193065643311e-02
-1.804927177727222443e-02
-5.268685892224311829e-02
-4.536185786128044128e-02
6.732095032930374146e-02
8.598724752664566040e-02
-5.666001699864864349e-03
1.020596735179424286e-02
-2.028075307607650757e-01
1.216387525200843811e-01
-7.146568596363067627e-02
-1.283498406410217285e-01
-2.297903746366500854e-01
7.065097801387310028e-03
-9.811455756425857544e-02
8.254575729370117188e-02
-1.466630548238754272e-01
-9.204073250293731689e-02
1.185988187789916992e-01
2.924798727035522461e-01
4.448969289660453796e-02
-1.052824407815933228e-01
-3.266004845499992371e-02
1.050334796309471130e-01
5.302593857049942017e-02
1.247145701199769974e-02
5.314531922340393066e-02
-1.003681719303131104e-01
-1.653578728437423706e-01
1.035691276192665100e-01
5.476230382919311523e-02
6.652703881263732910e-02
-8.284769952297210693e-02
-6.460924446582794189e-02
6.135228648781776428e-02
-3.348986804485321045e-02
1.928262785077095032e-02
-9.213570505380630493e-02
1.076403167098760605e-02
-2.328785322606563568e-02
-2.153407484292984009e-01
9.879432618618011475e-02
-1.107736453413963318e-01
-2.977403625845909119e-02
-2.113778144121170044e-02
-3.844962641596794128e-02
1.996448338031768799e-01
-6.980600953102111816e-02
8.837763965129852295e-02
4.618016630411148071e-02
-1.381389498710632324e-01
4.339898005127906799e-02
8.127202093601226807e-02
2.655172953382134438e-03
3.153875097632408142e-02
1.509273350238800049e-01
-5.262734740972518921e-02
1.036717817187309265e-01
1.181323230266571045e-01
2.598747313022613525e-01
-5.365690961480140686e-02
-1.154460161924362183e-01
5.604182183742523193e-02
-1.216418808326125145e-03
9.211786836385726929e-02
1.208548918366432190e-01
1.118676960468292236e-01
-1.740951091051101685e-01
-5.063084885478019714e-02
1.545216292142868042e-01
2.809631265699863434e-02
8.781845122575759888e-02
3.222699463367462158e-02
-1.538299322128295898e-01
-2.347205579280853271e-02
-7.295774668455123901e-02
2.237870693206787109e-01
-5.192277207970619202e-02
1.521676927804946899e-01
3.515422344207763672e-02
5.066137388348579407e-02
6.802148418501019478e-04
-8.196012675762176514e-02
2.281648479402065277e-02
-7.161349058151245117e-02
-8.451771736145019531e-02
-5.929396674036979675e-02
5.694220215082168579e-02
-8.891105651855468750e-02
2.327583432197570801e-01
-1.126027628779411316e-01
-3.953052312135696411e-02
-9.244776330888271332e-03
-5.358615890145301819e-02
1.122329682111740112e-01
8.258226444013416767e-04
-4.707172513008117676e-02
8.463214337825775146e-02
-9.074624627828598022e-02
-8.412341773509979248e-02
3.768362803384661674e-04
-3.208338096737861633e-02
-2.382902801036834717e-02
8.026207983493804932e-02
1.862652949057519436e-03
1.221351698040962219e-01
-1.091823950409889221e-01
-1.373705547302961349e-02
6.721822917461395264e-02
-1.169262677431106567e-01
8.199997991323471069e-02
1.393621903844177723e-03
5.369731690734624863e-03
5.638551432639360428e-03
7.869605720043182373e-02
-9.163370728492736816e-02
1.537539511919021606e-01
-6.906934827566146851e-02
6.636844016611576080e-03
-4.081047326326370239e-02
6.536354124546051025e-02
-6.996068637818098068e-03
1.399742066860198975e-01
-4.820317844860255718e-04
-3.154784142971038818e-01
-4.236974194645881653e-02
1.119619384407997131e-01
9.252394735813140869e-02
3.595778346061706543e-02
-3.115648962557315826e-02
-7.624845020473003387e-03
9.221700578927993774e-02
-1.328013688325881958e-01
4.000395908951759338e-02
4.328320175409317017e-02
1.076073106378316879e-02
-4.728411324322223663e-03
-4.647434130311012268e-02
-5.433374643325805664e-02
8.565494418144226074e-02
-1.051835566759109497e-01
-1.397145092487335205e-01
8.120689541101455688e-02
-9.880042076110839844e-02
1.143669933080673218e-01
-1.904083974659442902e-02
-2.733655087649822235e-02
3.839888796210289001e-02
8.158601820468902588e-02
-7.730426639318466187e-02
5.679956823587417603e-02
-1.239011362195014954e-01
3.578519076108932495e-02
4.040855914354324341e-02
9.441822767257690430e-03
1.166213750839233398e-01
-3.668303368613123894e-03
-5.423940718173980713e-02
6.667251884937286377e-02
3.899618610739707947e-02
-3.526218608021736145e-02
5.063648149371147156e-02
8.499091118574142456e-02
-8.879236876964569092e-02
-1.062385737895965576e-02
6.448158621788024902e-02
1.088309809565544128e-01
-1.282989829778671265e-01
2.088423222303390503e-01
-5.001050606369972229e-02
-1.086413115262985229e-01
1.169337406754493713e-01
-9.539837390184402466e-02
-8.750626444816589355e-02
-6.926268339157104492e-02
-1.512314751744270325e-02
-1.519234664738178253e-02
1.077080667018890381e-01
1.101612001657485962e-01
-1.221128851175308228e-01
-2.212430387735366821e-01
6.171796098351478577e-02
-3.217062354087829590e-02
-1.823119372129440308e-01
6.669458001852035522e-02
-1.951163858175277710e-01
-1.825014874339103699e-02
-2.535214275121688843e-02
1.552048474550247192e-01
7.807523757219314575e-02
5.457104369997978210e-02
2.129774354398250580e-02
-4.069242253899574280e-02
-1.062351763248443604e-01
1.450175791978836060e-01
-2.466173022985458374e-01
7.042903453111648560e-02
7.704495638608932495e-02
4.066550359129905701e-02
2.509861625730991364e-02
-5.110750347375869751e-02
2.458918541669845581e-01
4.625758156180381775e-02
-9.676624834537506104e-02
-2.069549113512039185e-01
4.726504161953926086e-02
9.329327195882797241e-02
1.162044554948806763e-01
-4.085861146450042725e-03
-3.013796359300613403e-02
-1.764508038759231567e-01
-4.181699454784393311e-02
1.714120060205459595e-01
-8.048905432224273682e-02
9.985309094190597534e-02
-1.037475243210792542e-01
-5.511825531721115112e-02
-3.760313242673873901e-02
-7.540378719568252563e-02
1.110635418444871902e-02
-1.263410747051239014e-01
9.445183724164962769e-02
1.423117965459823608e-01
7.843723148107528687e-02
-6.547365337610244751e-02
-2.034093253314495087e-02
9.995336085557937622e-02
1.105851382017135620e-01
-5.521025136113166809e-02
-1.968853026628494263e-01
-1.708621345460414886e-02
1.111972052603960037e-02
-7.331433892250061035e-02
9.053158760070800781e-02
8.193124830722808838e-02
6.991060078144073486e-02
7.171612698584794998e-03
2.328608930110931396e-02
-2.377383038401603699e-02
-8.636558800935745239e-02
3.408706188201904297e-02
5.426046997308731079e-02
-6.720586866140365601e-02
-1.342308372259140015e-01
-2.302929759025573730e-02
4.969159886240959167e-02
5.075930431485176086e-02
1.727369427680969238e-01
1.212143301963806152e-01
-1.948748230934143066e-01
-1.170023307204246521e-01
-1.118062138557434082e-01
-4.111286997795104980e-02
3.227639943361282349e-02
4.108241945505142212e-02
-1.375394593924283981e-02
-3.271406143903732300e-02
9.021010249853134155e-02
-2.554334327578544617e-02
-1.461802423000335693e-01
-1.523478329181671143e-01
-1.260625082068145275e-03
-1.974049657583236694e-01
8.096933364868164062e-02
-5.959452688694000244e-02
-5.236241221427917480e-02
6.761067360639572144e-02
3.033910878002643585e-02
-3.552996739745140076e-02
-7.744693011045455933e-02
-3.366929665207862854e-02
-1.029868274927139282e-01
-6.595102697610855103e-02
4.811422526836395264e-02
-1.678677201271057129e-01
-1.065074205398559570e-01
-8.647713810205459595e-02
3.558248654007911682e-02
-5.789589509367942810e-02
1.905693560838699341e-01
-9.051226824522018433e-02
-1.009011641144752502e-01
-5.590276792645454407e-02
7.969103753566741943e-02
-1.404789835214614868e-02
4.312264174222946167e-02
-4.705541208386421204e-02
-1.074302196502685547e-01
-1.157520934939384460e-01
-4.125867784023284912e-02
5.697925761342048645e-02
-9.503965266048908234e-03
-2.342230230569839478e-01
-5.657168105244636536e-02
9.910017251968383789e-03
-5.671333149075508118e-02
1.490545924752950668e-02
5.502252653241157532e-02
-2.990138344466686249e-02
2.547959610819816589e-02
6.236942019313573837e-03
-6.589870899915695190e-02
-3.938069194555282593e-02
-5.184244364500045776e-02
-1.427964307367801666e-02
-1.183671783655881882e-02
2.333687543869018555e-01
3.996121510863304138e-02
7.232452183961868286e-02
-6.425525993108749390e-02
1.691973209381103516e-01
-1.417218334972858429e-02
-8.263159543275833130e-02
2.213689126074314117e-02
-3.792569413781166077e-02
-8.967356383800506592e-02
-5.770480260252952576e-02
1.620590239763259888e-01
-6.390152126550674438e-02
2.315231785178184509e-02
-2.178740873932838440e-02
2.962914109230041504e-02
-1.096233576536178589e-01
-8.082125335931777954e-02
-1.271329373121261597e-01
-9.411910548806190491e-03
3.927602991461753845e-02
1.106508001685142517e-01
1.338520348072052002e-01
2.096566930413246155e-02
-9.141507744789123535e-02
3.368306905031204224e-02
-2.034980505704879761e-01
-3.406026959419250488e-02
9.141799807548522949e-02
2.001352757215499878e-01
2.088490501046180725e-02
-4.563941434025764465e-02
-4.570117965340614319e-02
-7.348324358463287354e-02
-2.045626491308212280e-01
1.838820129632949829e-01
-6.351156532764434814e-02
9.041628241539001465e-02
1.244450286030769348e-01
-7.803783565759658813e-02
-1.421514451503753662e-01
-8.589963614940643311e-02
-1.386026572436094284e-02
-4.181749001145362854e-02
9.622342139482498169e-02
5.158160254359245300e-02
7.285217195749282837e-02
-9.097666479647159576e-03
1.198377553373575211e-02
2.555557154119014740e-02
-3.953476250171661377e-02
1.910998113453388214e-02
-1.784226000308990479e-01
4.242921248078346252e-02
